tree
version=v2
num_class=1
num_tree_per_iteration=1
label_index=0
max_feature_idx=23
objective=regression
feature_names=Column_0 Column_1 Column_2 Column_3 Column_4 Column_5 Column_6 Column_7 Column_8 Column_9 Column_10 Column_11 Column_12 Column_13 Column_14 Column_15 Column_16 Column_17 Column_18 Column_19 Column_20 Column_21 Column_22 Column_23
feature_infos=[0:1] [0:1] [0:1] [0:1] [0:1] [0:1] [0:1] [0:1] [0:1] [0:1] [0:1] [0:1] [0:1] [0:1] [0:999] [0:999] [0:999] [0:999] [0:999] [0:999] [0:999] [0:999] [0:999] [0:999]
tree_sizes=2656 2655 2666 2662 2656 2650 2641 2649 2649 2658 2646 2652 2657 2651 2646 2636 2652 2657 2656 2645 2658 2662 2674 2662 2658 2667 2666 2675 2665 2688 2670 2683 2682 2686 2695 2677 2687 2661 2689 2703 2703 2686 2684 2687 2703 2677 2704 2695 2713 2710 2697 2703 2685 2709 2687 2708 2700 2721 2698 2732 2721 2712 2693 2685 2666 2668 2645 2671 2677 2657 2642 2652 2668 2640 2656 2648 2655 2629 2620 2620 2653 2618 2620 2621 2622 2598 2595 2593 2614 2617 2622 2587 2607 2603 2615 2623 2587 2591 2601 2605

Tree=0
num_leaves=31
num_cat=0
split_feature=7 3 11 5 11 5 19 5 14 17 8 16 14 5 13 16 18 21 20 19 15 15 16 21 16 23 15 13 15 23
split_gain=7.31087e+10 1.0834e+09 4.78066e+08 3.65869e+08 2.52214e+08 1.84293e+08 1.33305e+08 8.54949e+07 7.22434e+07 6.79337e+07 6.3623e+07 6.11555e+07 4.83898e+07 4.12435e+07 4.02038e+07 3.80331e+07 3.58706e+07 3.35149e+07 3.21745e+07 2.84497e+07 2.7421e+07 2.59699e+07 2.54305e+07 2.31856e+07 2.25475e+07 2.02737e+07 1.91806e+07 1.91038e+07 1.80314e+07 1.72358e+07
threshold=1.0000000180025095e-35 1.0000000180025095e-35 1.0000000180025095e-35 1.0000000180025095e-35 1.0000000180025095e-35 1.0000000180025095e-35 456.50000000000006 1.0000000180025095e-35 485.50000000000006 557.50000000000011 1.0000000180025095e-35 551.50000000000011 465.50000000000006 1.0000000180025095e-35 1.0000000180025095e-35 499.50000000000006 460.50000000000006 440.50000000000006 510.50000000000006 464.50000000000006 504.50000000000006 496.50000000000006 523.50000000000011 448.50000000000006 539.50000000000011 498.50000000000006 496.50000000000006 1.0000000180025095e-35 516.50000000000011 543.50000000000011
decision_type=2 2 2 2 2 2 2 2 2 2 2 2 2 2 2 2 2 2 2 2 2 2 2 2 2 2 2 2 2 2
left_child=10 2 3 6 5 9 11 18 16 15 -1 17 24 29 23 28 -8 -2 -4 -11 -13 -14 -7 -10 -5 -18 -19 -17 -3 -6
right_child=1 4 7 12 13 22 8 -9 14 19 -12 20 21 -15 -16 27 25 26 -20 -21 -22 -23 -24 -25 -26 -27 -28 -29 -30 -31
leaf_value=225.40752329211796 274.01519501052155 287.23017841735242 270.78983775305312 269.22048581972814 282.06659923951065 283.76819048823194 280.19994640032291 265.66902706386082 284.39051481365618 298.92782023249555 223.45310068781566 280.96420496741626 274.5226166723246 275.88434966829635 295.05753180616824 296.25006433193369 283.41409850442977 277.21463156899688 276.35747061998575 306.77989252593699 287.4971350618851 280.0981624385679 290.80529404389682 290.74231867522985 274.78892748098019 290.18300218574598 283.81970999247955 304.87740275778378 295.09844093437277 289.13718583391409
leaf_count=332997 14153 6069 21182 15749 7560 10900 15226 20841 10476 8584 333253 12973 16412 7013 11733 7806 8794 8700 20352 9978 12729 17015 9710 12730 13509 8906 8888 3824 5600 6338
internal_value=0 382.026 349.146 374.316 480.753 512.573 405.518 273.284 435.526 550.684 -191.371 370.066 311.943 385.692 467.199 514.727 401.916 340.705 299.51 595.816 406.326 337.936 435.165 443.078 282.245 432.529 369.854 555.197 474.391 417.24
internal_count=1000000 333750 250368 187993 83382 62471 125308 62375 67865 41861 666250 57443 62685 20911 34939 23299 32926 31741 41534 18562 25702 33427 20610 23206 29258 17700 17588 11630 11669 13898
shrinkage=1


Tree=1
num_leaves=31
num_cat=0
split_feature=7 3 11 5 11 5 17 5 20 14 23 8 21 23 23 5 21 15 22 15 20 20 22 18 16 18 22 15 22 20
split_gain=5.9218e+10 8.77555e+08 3.87234e+08 2.96354e+08 2.04293e+08 1.49278e+08 1.28905e+08 6.92508e+07 6.65129e+07 6.21099e+07 6.13629e+07 5.15346e+07 4.70674e+07 3.53977e+07 3.53178e+07 3.34073e+07 3.22787e+07 3.1592e+07 3.13619e+07 3.04373e+07 2.99208e+07 2.45765e+07 2.41246e+07 2.40832e+07 1.78173e+07 1.76684e+07 1.75147e+07 1.75078e+07 1.75011e+07 1.68557e+07
threshold=1.0000000180025095e-35 1.0000000180025095e-35 1.0000000180025095e-35 1.0000000180025095e-35 1.0000000180025095e-35 1.0000000180025095e-35 477.50000000000006 1.0000000180025095e-35 530.50000000000011 531.50000000000011 518.50000000000011 1.0000000180025095e-35 501.50000000000006 494.50000000000006 494.50000000000006 1.0000000180025095e-35 530.50000000000011 468.50000000000006 576.50000000000011 500.50000000000006 514.50000000000011 458.50000000000006 480.50000000000006 485.50000000000006 483.50000000000006 541.50000000000011 476.50000000000006 488.50000000000006 488.50000000000006 490.50000000000006
decision_type=2 2 2 2 2 2 2 2 2 2 2 2 2 2 2 2 2 2 2 2 2 2 2 2 2 2 2 2 2 2
left_child=11 2 3 6 5 9 10 17 14 13 18 -1 21 26 24 -6 28 -4 27 -12 -11 -5 -7 -14 -8 -16 -3 -2 -10 -15
right_child=1 4 7 12 15 22 8 -9 16 20 19 -13 23 29 25 -17 -18 -19 -20 -21 -22 -23 -24 -25 -26 -27 -28 -29 -30 -31
leaf_value=-16.343574591454551 24.118860215939236 37.718497842921245 24.010844169953927 22.332954451846888 37.55159738887847 35.590076625266072 30.046855469010779 19.891778249425947 36.569684474590346 49.862214669399208 33.245568003090128 -18.102555003150474 27.977715907230603 45.976888149110536 36.818975432202059 29.085569181440391 46.377974778296839 29.538632567375444 33.738474414126586 39.750678231563214 57.667278888534284 27.933815744127671 42.439264476287093 33.540036948760587 36.479913693748813 43.182176021050587 45.714457048365993 30.401568539366721 43.118601456370165 53.729753388950627
leaf_count=332997 8773 5238 19406 14540 13898 9853 8402 20841 8044 10109 14575 333253 15173 5560 9597 7013 14476 22128 13155 14201 9553 16988 10757 15984 8830 8002 5743 8971 8282 5658
internal_value=0 343.823 314.231 336.884 432.678 461.315 364.966 245.956 395.549 495.615 331.33 -172.234 280.748 459.364 365.613 347.123 429.401 269.559 300.384 364.558 536.544 253.508 391.649 308.313 333.433 397.122 419.003 272.953 398.919 498.872
internal_count=1000000 333750 250368 187993 83382 62471 125308 62375 65633 41861 59675 666250 62685 22199 34831 20911 30802 41534 30899 28776 19662 31528 20610 31157 17232 17599 10981 17744 16326 11218
shrinkage=0.1


Tree=2
num_leaves=31
num_cat=0
split_feature=7 3 11 5 11 5 22 13 21 5 16 17 8 18 13 19 20 18 19 5 18 14 22 19 14 16 19 17 18 14
split_gain=4.79666e+10 7.1082e+08 3.13659e+08 2.40047e+08 1.65477e+08 1.20915e+08 1.17791e+08 6.72844e+07 6.19427e+07 5.60932e+07 5.57161e+07 4.59463e+07 4.17431e+07 3.91808e+07 3.37625e+07 3.09875e+07 2.9945e+07 2.90448e+07 2.73967e+07 2.70599e+07 2.43408e+07 2.37697e+07 2.34929e+07 2.25644e+07 2.13569e+07 2.02525e+07 1.85701e+07 1.67534e+07 1.6323e+07 1.63134e+07
threshold=1.0000000180025095e-35 1.0000000180025095e-35 1.0000000180025095e-35 1.0000000180025095e-35 1.0000000180025095e-35 1.0000000180025095e-35 476.50000000000006 1.0000000180025095e-35 473.50000000000006 1.0000000180025095e-35 519.50000000000011 485.50000000000006 1.0000000180025095e-35 481.50000000000006 1.0000000180025095e-35 452.50000000000006 470.50000000000006 485.50000000000006 500.50000000000006 1.0000000180025095e-35 469.50000000000006 503.50000000000006 496.50000000000006 524.50000000000011 485.50000000000006 559.50000000000011 484.50000000000006 485.50000000000006 460.50000000000006 481.50000000000006
decision_type=2 2 2 2 2 2 2 2 2 2 2 2 2 2 2 2 2 2 2 2 2 2 2 2 2 2 2 2 2 2
left_child=12 2 3 6 5 8 10 13 17 15 16 23 -1 26 25 -4 -2 -3 -12 27 -9 -7 -13 -5 -15 -10 -8 -6 -17 -18
right_child=1 4 9 11 19 21 7 20 14 -11 18 22 -14 24 -16 28 29 -19 -20 -21 -22 -23 -24 -25 -26 -27 -28 -29 -30 -31
leaf_value=-14.709217157569723 23.408089061018785 36.596600370871549 21.238027135902129 19.888869448901701 30.255844052627403 31.853013240317779 27.346303493008136 36.791342802294473 42.254140377831213 17.902600571510032 29.727285745608611 25.172799236370196 -16.292299562674526 33.259494297302481 53.819638105547227 23.815557401139181 26.378291427580834 44.252669815312714 35.908197713344457 26.177011916356271 43.457113208997605 38.645089198713869 30.573413832523229 25.338358138471332 39.412940328364897 49.738068894835209 33.291517504472793 37.201103746525909 29.179735265290077 32.681737558276666
leaf_count=332997 14621 9588 18673 15962 6813 10307 10248 10446 8336 20841 14365 15952 333253 11074 7296 10445 7962 10255 14320 7013 11519 10303 16270 14501 11495 6386 10781 7085 12416 8477
internal_value=0 309.441 282.808 303.196 389.41 415.184 328.47 357.737 446.054 221.36 296.352 252.673 -155.011 334.999 482.571 242.603 267.005 405.533 328.129 312.411 402.87 352.484 278.998 224.829 363.936 455.005 303.943 337.964 267.289 296.288
internal_count=1000000 333750 250368 187993 83382 62471 125308 65563 41861 62375 59745 62685 666250 43598 22018 41534 31060 19843 28685 20911 21965 20610 32222 30463 22569 14722 21029 13898 22861 16439
shrinkage=0.1


Tree=3
num_leaves=31
num_cat=0
split_feature=7 3 13 5 13 14 5 5 15 11 21 21 23 5 23 8 11 15 17 20 22 15 21 22 16 15 16 17 23 15
split_gain=3.88529e+10 5.75764e+08 2.76789e+08 1.64904e+08 1.41157e+08 9.69241e+07 8.46103e+07 7.26109e+07 5.22376e+07 5.01978e+07 4.91361e+07 4.40697e+07 3.96356e+07 3.51145e+07 3.46917e+07 3.38119e+07 3.03247e+07 2.65634e+07 2.40648e+07 2.37704e+07 2.29514e+07 2.19672e+07 2.1177e+07 2.04636e+07 2.02595e+07 1.94676e+07 1.91501e+07 1.9103e+07 1.7009e+07 1.64665e+07
threshold=1.0000000180025095e-35 1.0000000180025095e-35 1.0000000180025095e-35 1.0000000180025095e-35 1.0000000180025095e-35 485.50000000000006 1.0000000180025095e-35 1.0000000180025095e-35 424.50000000000006 1.0000000180025095e-35 465.50000000000006 547.50000000000011 482.50000000000006 1.0000000180025095e-35 458.50000000000006 1.0000000180025095e-35 1.0000000180025095e-35 424.50000000000006 497.50000000000006 458.50000000000006 544.50000000000011 460.50000000000006 469.50000000000006 439.50000000000006 434.50000000000006 420.50000000000006 539.50000000000011 533.50000000000011 514.50000000000011 460.50000000000006
decision_type=2 2 2 2 2 2 2 2 2 2 2 2 2 2 2 2 2 2 2 2 2 2 2 2 2 2 2 2 2 2
left_child=15 2 3 5 6 10 8 11 20 14 18 19 26 21 29 -1 23 -12 -2 -4 -3 -6 -8 -10 -14 -13 -5 -16 -9 -7
right_child=1 4 7 12 13 9 22 28 16 -11 17 25 24 -15 27 -17 -18 -19 -20 -21 -22 -23 -24 -25 -26 -27 -28 -29 -30 -31
leaf_value=-13.238295457737713 16.80755821769699 27.904544552494226 27.111978530682286 14.402556790444724 40.807821729587289 24.131425375333649 24.103276543164288 23.591180007090699 36.805924602416844 24.398392576404692 22.06601107621206 33.358646944704752 18.923950159544358 36.333754337977318 30.274995949088648 -14.663069453128708 33.290007200470946 27.880531041437138 22.630020112029399 33.596803385762364 35.127001303855614 48.822676252822951 30.484176772347794 43.968490916433744 23.946714477806776 39.818864161439123 19.454408514161301 36.054145600724013 29.33483400976867 29.921872900192888
leaf_count=332997 14119 9743 10438 16200 6319 9113 9781 10710 7150 21477 13544 7993 14182 6734 12286 333253 8049 18712 14276 12329 8023 7453 11108 9022 18514 11202 13978 10702 9942 10651
internal_value=0 278.497 254.527 235.326 350.469 256.355 326.972 312.104 352.846 283.427 227.685 335.994 193.559 422.516 303.241 -139.51 383.055 254.391 197.349 306.237 311.662 451.452 274.964 408.018 217.681 371.288 167.425 329.655 263.562 272.52
internal_count=1000000 333750 250368 187754 83382 124880 62876 62614 41987 64229 60651 41962 62874 20506 42752 666250 24221 32256 28395 22767 17766 13772 20889 16172 32696 19195 30178 22988 20652 19764
shrinkage=0.1


Tree=4
num_leaves=31
num_cat=0
split_feature=7 3 11 5 11 18 17 16 20 5 15 5 19 22 16 22 15 8 17 16 18 18 19 5 23 20 20 17 16 20
split_gain=3.14709e+10 4.66369e+08 2.24983e+08 1.55056e+08 1.17965e+08 1.05608e+08 7.90927e+07 5.69756e+07 5.0595e+07 4.43926e+07 4.30335e+07 3.88747e+07 3.65733e+07 3.22655e+07 3.05038e+07 3.00132e+07 2.74879e+07 2.73876e+07 2.54314e+07 2.30566e+07 2.2744e+07 2.05985e+07 2.0036e+07 1.96869e+07 1.78317e+07 1.73643e+07 1.69526e+07 1.63947e+07 1.58601e+07 1.58093e+07
threshold=1.0000000180025095e-35 1.0000000180025095e-35 1.0000000180025095e-35 1.0000000180025095e-35 1.0000000180025095e-35 533.50000000000011 457.50000000000006 458.50000000000006 530.50000000000011 1.0000000180025095e-35 528.50000000000011 1.0000000180025095e-35 464.50000000000006 476.50000000000006 547.50000000000011 467.50000000000006 396.50000000000006 1.0000000180025095e-35 509.50000000000006 442.50000000000006 493.50000000000006 481.50000000000006 435.50000000000006 1.0000000180025095e-35 466.50000000000006 502.50000000000006 526.50000000000011 433.50000000000006 527.50000000000011 607.50000000000011
decision_type=2 2 2 2 2 2 2 2 2 2 2 2 2 2 2 2 2 2 2 2 2 2 2 2 2 2 2 2 2 2
left_child=17 2 3 5 6 7 12 16 18 14 20 15 26 -9 24 -4 -2 -1 -7 -10 -5 -6 -12 -14 -8 -15 -3 -18 -17 -16
right_child=1 4 11 10 21 8 9 13 19 -11 22 -13 23 25 29 28 27 -19 -20 -21 -22 -23 -24 -25 -26 -27 -28 -29 -30 -31
leaf_value=-11.914466313976391 17.142205742000229 22.626333899322145 16.618077582685185 15.410866823536796 21.779520256639486 24.220446992784652 32.147698363884416 23.535941407499681 29.692778307095775 31.798796225301086 20.398626752143819 14.178991671971293 35.737205170235789 26.535351244333551 40.403318370996061 19.450366102484541 19.8036843216737 -13.196762759098014 29.952871242045411 35.549088288228511 20.670785893487452 28.061279492455864 25.623255726391807 28.102338704033599 39.70715602060023 32.601254558784113 29.772662190346256 25.787690405981831 24.826321521860717 48.437576948708205
leaf_count=332997 12285 7014 19528 16201 10054 15843 5836 17262 12156 11129 13098 20841 10116 9599 6285 11553 7995 333253 15130 15041 16689 10857 16697 5070 6706 9283 6302 10714 10453 4013
internal_value=0 250.647 229.074 246.342 315.422 266.654 337.183 239.632 297.843 369.777 205.736 177.033 298.339 266.608 395.011 194.717 208.173 -125.559 270.207 329.315 180.798 250.41 233.265 331.882 361.896 295.175 260.084 232.305 220.04 435.342
internal_count=1000000 333750 250368 187993 83382 125308 62471 67138 58170 33969 62685 62375 28502 36144 22840 41534 30994 666250 30973 27197 32890 20911 29795 15186 12542 18882 13316 18709 22006 10298
shrinkage=0.1


Tree=5
num_leaves=31
num_cat=0
split_feature=7 3 13 19 13 21 20 23 14 5 16 21 5 21 19 18 22 18 5 8 23 23 14 20 5 23 19 15 22 23
split_gain=2.54914e+10 3.77759e+08 2.09112e+08 1.2264e+08 1.06692e+08 6.56852e+07 6.24211e+07 6.07631e+07 5.59145e+07 3.56714e+07 3.52478e+07 3.50209e+07 3.1998e+07 3.16493e+07 3.12171e+07 2.99611e+07 2.59296e+07 2.44971e+07 2.40066e+07 2.2184e+07 2.18759e+07 1.87309e+07 1.82695e+07 1.75374e+07 1.74503e+07 1.71369e+07 1.68627e+07 1.68514e+07 1.5276e+07 1.50355e+07
threshold=1.0000000180025095e-35 1.0000000180025095e-35 1.0000000180025095e-35 492.50000000000006 1.0000000180025095e-35 501.50000000000006 514.50000000000011 575.50000000000011 571.50000000000011 1.0000000180025095e-35 495.50000000000006 489.50000000000006 1.0000000180025095e-35 461.50000000000006 472.50000000000006 509.50000000000006 528.50000000000011 481.50000000000006 1.0000000180025095e-35 1.0000000180025095e-35 531.50000000000011 527.50000000000011 555.50000000000011 397.50000000000006 1.0000000180025095e-35 437.50000000000006 456.50000000000006 480.50000000000006 524.50000000000011 494.50000000000006
decision_type=2 2 2 2 2 2 2 2 2 2 2 2 2 2 2 2 2 2 2 2 2 2 2 2 2 2 2 2 2 2
left_child=19 2 3 7 5 10 13 11 14 17 26 23 20 28 -4 29 -9 -7 25 -1 -8 -12 -13 -2 -15 -10 -3 -16 -5 -6
right_child=1 4 8 6 15 9 12 16 18 -11 21 22 -14 24 27 -17 -18 -19 -20 -21 -22 -23 -24 -25 -26 -27 -28 -29 -30 -31
leaf_value=-10.723019627719138 8.3885910122177485 16.241592929411887 19.944180680118517 13.776822358719739 27.050340304453023 28.430927337654708 23.467969682995012 16.90666255503228 27.677870862508442 24.82536017274326 23.17369050802672 14.345768117244317 20.389212672887414 23.175859293997938 22.757926233719711 38.54978328097139 22.048674087706651 35.301385780098506 24.796269035604922 -11.877086550849173 28.807437081836401 30.033461081684223 19.583510173794323 13.663358851179693 17.71067753500591 33.908886428687453 22.811860754365568 28.738577746344529 18.973985074780735 34.636153255011287
leaf_count=332997 10503 7263 17053 11928 5144 10005 16428 20763 7846 10418 8340 14908 15477 17419 9119 10052 18585 10783 8759 333253 14398 7615 12036 15763 8791 10090 8452 9747 10755 5310
internal_value=0 225.582 206.167 189.478 283.88 263.452 214.679 163.558 256.212 296.013 231.368 141.525 240.992 189.759 230.45 346.517 193.354 319.947 290.875 -113.003 259.619 264.477 166.855 115.541 213.428 311.832 197.753 258.478 162.41 309.035
internal_count=1000000 333750 250368 187754 83382 62876 95196 92558 62614 31206 31670 53210 46303 48893 35919 20506 39348 20788 26695 666250 30826 15955 26944 26266 26210 17936 15715 18866 22683 10454
shrinkage=0.1


Tree=6
num_leaves=31
num_cat=0
split_feature=7 3 11 21 22 15 20 13 20 14 17 14 5 18 17 16 16 14 19 14 19 18 22 8 17 15 16 17 18 5
split_gain=2.0648e+10 3.05985e+08 1.69605e+08 1.29708e+08 8.94801e+07 7.253e+07 5.99373e+07 5.45802e+07 4.00074e+07 3.86376e+07 3.7603e+07 3.67415e+07 3.52425e+07 3.3273e+07 2.6056e+07 2.42905e+07 2.25966e+07 2.10239e+07 1.97415e+07 1.8982e+07 1.88221e+07 1.88213e+07 1.85156e+07 1.7969e+07 1.75814e+07 1.75231e+07 1.57921e+07 1.42895e+07 1.37003e+07 1.32372e+07
threshold=1.0000000180025095e-35 1.0000000180025095e-35 1.0000000180025095e-35 547.50000000000011 447.50000000000006 552.50000000000011 422.50000000000006 1.0000000180025095e-35 486.50000000000006 433.50000000000006 525.50000000000011 531.50000000000011 1.0000000180025095e-35 419.50000000000006 509.50000000000006 511.50000000000006 458.50000000000006 453.50000000000006 596.50000000000011 437.50000000000006 560.50000000000011 493.50000000000006 556.50000000000011 1.0000000180025095e-35 525.50000000000011 584.50000000000011 499.50000000000006 469.50000000000006 561.50000000000011 1.0000000180025095e-35
decision_type=2 2 2 2 2 2 2 2 2 2 2 2 2 2 2 2 2 2 2 2 2 2 2 2 2 2 2 2 2 2
left_child=23 2 3 5 8 9 14 11 18 24 21 20 15 27 28 -8 -11 -10 -3 -12 -6 -4 -15 -1 -2 -13 -9 -7 -5 -16
right_child=1 4 10 6 7 13 12 26 17 16 19 25 -14 22 29 -17 -18 -19 -20 -21 -22 -23 -24 -25 -26 -27 -28 -29 -30 -31
leaf_value=-9.6507173818247072 9.8108366989460549 15.848046936644465 9.2793199671826478 14.793929894492189 20.66183745604862 14.584555338400595 24.484895979064881 30.81423337315924 21.47824627567185 14.708880313530607 13.743527975165376 27.228054448409058 21.433553950585132 20.558917548546948 24.516551933376078 29.954168508967964 20.022754976415484 28.134586584183751 22.526293103726506 18.863314019221502 27.129516596517295 14.062135413975515 25.858132670794035 -10.689377886626005 15.127494158347796 33.904426798177433 38.258954572095796 20.028888788415983 20.298216460592304 18.696645849160397
leaf_count=332997 13080 10820 16162 10261 10398 9097 16735 5743 8678 14803 12834 9477 16234 14828 11859 15775 17419 10470 7491 16619 7932 16760 11873 333253 11859 6718 5655 10256 8085 5829
internal_value=0 203.024 185.55 200.542 255.492 176.737 229.525 285.078 219.22 152.942 140.365 265.27 252.387 206.269 198.6 271.388 175.815 251.179 185.801 166.324 234.606 117.142 229.153 -101.702 123.39 299.975 345.079 174.697 172.196 225.986
internal_count=1000000 333750 250368 187993 83382 103215 84778 45923 37459 57161 62375 34525 48744 46054 36034 32510 32222 19148 18311 29453 18330 32922 26701 666250 24939 16195 11398 19353 18346 17688
shrinkage=0.1


Tree=7
num_leaves=31
num_cat=0
split_feature=7 3 13 22 23 15 11 23 20 15 18 16 16 23 22 17 17 23 17 16 17 21 18 17 15 17 8 5 5 13
split_gain=1.67249e+10 2.47847e+08 1.58003e+08 1.09943e+08 8.69735e+07 6.0301e+07 4.98976e+07 4.98831e+07 4.86003e+07 4.01664e+07 3.72156e+07 3.30747e+07 2.83806e+07 2.77913e+07 2.72347e+07 2.28033e+07 2.14772e+07 2.13366e+07 1.95721e+07 1.88641e+07 1.85028e+07 1.72252e+07 1.69416e+07 1.51835e+07 1.50567e+07 1.46243e+07 1.45549e+07 1.3873e+07 1.3083e+07 1.29965e+07
threshold=1.0000000180025095e-35 1.0000000180025095e-35 1.0000000180025095e-35 552.50000000000011 458.50000000000006 460.50000000000006 1.0000000180025095e-35 437.50000000000006 555.50000000000011 444.50000000000006 509.50000000000006 438.50000000000006 551.50000000000011 607.50000000000011 536.50000000000011 477.50000000000006 525.50000000000011 381.50000000000006 573.50000000000011 430.50000000000006 412.50000000000006 579.50000000000011 427.50000000000006 589.50000000000011 536.50000000000011 497.50000000000006 1.0000000180025095e-35 1.0000000180025095e-35 1.0000000180025095e-35 1.0000000180025095e-35
decision_type=2 2 2 2 2 2 2 2 2 2 2 2 2 2 2 2 2 2 2 2 2 2 2 2 2 2 2 2 2 2
left_child=26 2 3 5 9 13 10 16 12 21 18 25 24 22 23 -11 -4 -10 -6 -12 -13 -3 -2 -9 -5 -7 -1 -19 -14 -17
right_child=1 4 7 8 6 11 -8 14 17 15 19 20 28 -15 -16 29 -18 27 -20 -21 -22 -23 -24 -25 -26 -27 -28 -29 -30 -31
leaf_value=-8.6856457410995827 5.7548003961975978 13.132607951758562 15.176760650261322 11.328128270628214 21.767331702891898 10.08468854831724 20.203252875557112 18.637739168542801 17.602808312867836 18.930822144907562 27.412931232156037 14.543811372661271 20.290191727171532 13.469568140064874 26.566748651398825 23.50768974480826 20.780088453122673 24.26093671506252 28.57392656672296 34.229396674824123 19.475471721951902 19.578503610011381 10.628236423063884 24.376759575297626 16.174557085610946 14.974203580855596 -9.6204398309553163 19.047208296582863 15.007807900972157 31.348708836957258
leaf_count=332997 12540 9795 14329 13877 9988 12169 11262 11278 14339 10082 7157 12927 13967 18685 16121 8380 13089 15284 7321 9382 18488 7188 16544 7797 11914 12300 333253 7662 7058 2827
internal_value=0 182.722 166.995 152.488 229.943 130.691 259.691 210.497 179.353 194.879 278.875 152.991 157.9 104.603 235.409 223.814 178.517 206.29 246.462 312.797 174.461 158.608 85.2698 209.836 135.669 125.425 -91.5322 225.2 185.169 254.856
internal_count=1000000 333750 250368 187754 83382 103653 45110 62614 84101 38272 33848 55884 46816 47769 35196 21289 27418 37285 17309 16539 31415 16983 29084 19075 25791 24469 666250 22946 21025 11207
shrinkage=0.1


Tree=8
num_leaves=31
num_cat=0
split_feature=7 19 18 3 20 14 14 3 14 5 23 16 13 20 13 20 15 18 13 5 17 16 23 21 16 22 21 13 17 16
split_gain=1.35472e+10 2.23447e+08 1.28364e+08 1.11999e+08 7.26354e+07 6.59012e+07 5.45133e+07 3.87281e+07 3.84001e+07 3.80556e+07 3.76047e+07 3.26878e+07 2.88969e+07 2.70712e+07 2.34026e+07 2.08951e+07 2.03502e+07 1.96113e+07 1.88552e+07 1.87461e+07 1.86609e+07 1.6562e+07 1.6467e+07 1.62694e+07 1.51918e+07 1.39525e+07 1.32649e+07 1.29606e+07 1.27897e+07 1.24668e+07
threshold=1.0000000180025095e-35 568.50000000000011 427.50000000000006 1.0000000180025095e-35 514.50000000000011 588.50000000000011 385.50000000000006 1.0000000180025095e-35 519.50000000000011 1.0000000180025095e-35 527.50000000000011 503.50000000000006 1.0000000180025095e-35 567.50000000000011 1.0000000180025095e-35 434.50000000000006 367.50000000000006 601.50000000000011 1.0000000180025095e-35 1.0000000180025095e-35 453.50000000000006 583.50000000000011 401.50000000000006 390.50000000000006 458.50000000000006 528.50000000000011 416.50000000000006 1.0000000180025095e-35 537.50000000000011 623.50000000000011
decision_type=2 2 2 2 2 2 2 2 2 2 2 2 2 2 2 2 2 2 2 2 2 2 2 2 2 2 2 2 2 2
left_child=-1 2 6 5 8 10 15 14 16 13 17 22 20 24 21 -2 -4 -3 29 26 -7 -6 -8 -13 -5 -9 -10 -15 -18 -12
right_child=1 3 4 9 7 12 11 25 19 -11 18 23 -14 27 -16 -17 28 -19 -20 -21 -22 -23 -24 -25 -26 -27 -28 -29 -30 -31
leaf_value=-8.2379002308878082 5.0009120460652623 11.464167521306351 7.9885902222660521 20.046145327296259 14.125452498047899 16.694536667466874 7.5874016465009362 20.690925766740829 15.3626365149864 19.651636746123629 14.999614523374156 12.602377954287343 25.167120012378788 28.369389672862113 21.760923988908601 10.203236615728992 11.04896355311606 16.421914837333784 22.622251424529864 12.955462201705359 21.440750900224355 18.941754439832049 12.804383782399791 17.854370257939884 26.727998007625487 27.191219028653695 20.895023886293906 36.55102995306784 16.312150255881399 19.86012389535469
leaf_count=666250 13762 20174 10776 6332 17184 15185 10151 6915 7489 11997 13880 9648 11129 7705 9839 17587 10124 13199 7564 8964 18228 12215 14977 15176 7355 6320 10287 2586 8488 8514
internal_value=0 164.449 141.93 194.179 164.425 178.065 111.881 191.172 139.419 242.497 157.337 132.394 207.537 265.503 175.394 79.1945 114.469 134.25 183.056 166.84 192.838 161.266 106.969 158.132 236.368 237.95 185.642 304.253 134.492 168.475
internal_count=1000000 333750 189902 143848 108601 107873 81301 52473 56128 35975 63331 49952 44542 23978 39238 31349 29388 33373 29958 26740 33413 29399 25128 24824 13687 13235 17776 10291 18612 22394
shrinkage=0.1


Tree=9
num_leaves=31
num_cat=0
split_feature=7 21 3 15 22 5 11 11 17 23 15 17 23 15 16 17 18 17 5 19 16 14 5 3 5 18 8 14 14 17
split_gain=1.09732e+10 2.08085e+08 1.23091e+08 8.67658e+07 7.93313e+07 5.21448e+07 5.05412e+07 4.81472e+07 3.8596e+07 3.77519e+07 3.68481e+07 3.63749e+07 3.17777e+07 2.30985e+07 2.109e+07 1.99615e+07 1.9631e+07 1.72979e+07 1.64211e+07 1.62262e+07 1.6081e+07 1.59571e+07 1.53966e+07 1.49207e+07 1.41395e+07 1.39622e+07 1.17895e+07 1.17387e+07 1.13551e+07 1.11399e+07
threshold=1.0000000180025095e-35 420.50000000000006 1.0000000180025095e-35 404.50000000000006 391.50000000000006 1.0000000180025095e-35 1.0000000180025095e-35 1.0000000180025095e-35 605.50000000000011 470.50000000000006 548.50000000000011 605.50000000000011 535.50000000000011 400.50000000000006 487.50000000000006 396.50000000000006 581.50000000000011 605.50000000000011 1.0000000180025095e-35 403.50000000000006 414.50000000000006 515.50000000000011 1.0000000180025095e-35 1.0000000180025095e-35 1.0000000180025095e-35 477.50000000000006 1.0000000180025095e-35 620.50000000000011 490.50000000000006 557.50000000000011
decision_type=2 2 2 2 2 2 2 2 2 2 2 2 2 2 2 2 2 2 2 2 2 2 2 2 2 2 2 2 2 2
left_child=26 3 4 11 12 9 8 10 13 17 16 14 19 -6 -2 -11 27 -5 -10 -3 -12 -7 -14 -17 -15 -13 -1 -4 -8 -9
right_child=1 2 7 5 6 21 28 29 18 15 20 25 22 24 -16 23 -18 -19 -20 -21 -22 -23 -24 -25 -26 -27 -28 -29 -30 -31
leaf_value=-6.9932911573616385 4.3257035224260392 7.5549098158896504 15.061448159416139 10.860176938228088 13.852891266532289 8.1047723178998616 10.879136280576192 13.176655517100048 23.489046135500466 14.946694763982677 22.909911288401172 9.3845912600569275 16.794678927846029 20.506123450706763 9.2618595272200661 18.594453126330052 23.961371984770395 16.116308680862996 18.152719746710087 12.265532288267819 29.285838220748321 12.885197357387074 11.680040725019262 25.271846883808568 15.372924257507158 14.361261028806872 -7.8346060772273933 21.64228710918432 15.424850995281142 19.274014111855692
leaf_count=332997 16990 12324 7122 15784 16070 14473 10750 6795 17486 11606 6730 10738 17671 15743 17645 13242 8239 10378 8604 17982 9596 13492 8825 4478 8141 11868 333253 4376 11242 5360
internal_value=0 148.005 169.321 118.755 154.751 139.322 173.55 213.084 187.377 157.068 231.429 88.7704 125.615 167.842 68.4046 181.704 202.357 129.452 217.292 103.499 266.575 104.111 150.912 202.819 187.564 119.973 -74.1411 175.66 132.028 158.654
internal_count=1000000 333750 193056 140694 144838 83453 88036 48218 66044 55488 36063 57241 56802 39954 34635 29326 19737 26162 26090 30306 16326 27965 26496 17720 23884 22606 666250 11498 21992 12155
shrinkage=0.1


Tree=10
num_leaves=31
num_cat=0
split_feature=7 16 18 20 20 14 3 22 13 23 13 22 5 3 23 23 14 3 13 15 23 19 14 14 14 14 18 18 3 23
split_gain=8.88831e+09 1.96494e+08 1.13363e+08 8.78455e+07 6.84312e+07 5.19451e+07 5.15234e+07 3.7254e+07 3.38618e+07 3.22344e+07 3.22133e+07 3.162e+07 2.18695e+07 2.17825e+07 1.98194e+07 1.9536e+07 1.86738e+07 1.85087e+07 1.83815e+07 1.75431e+07 1.72982e+07 1.53563e+07 1.33091e+07 1.32507e+07 1.32052e+07 1.28957e+07 1.20041e+07 1.14565e+07 1.11495e+07 1.0342e+07
threshold=1.0000000180025095e-35 430.50000000000006 601.50000000000011 380.50000000000006 555.50000000000011 385.50000000000006 1.0000000180025095e-35 556.50000000000011 1.0000000180025095e-35 409.50000000000006 1.0000000180025095e-35 536.50000000000011 1.0000000180025095e-35 1.0000000180025095e-35 345.50000000000006 555.50000000000011 373.50000000000006 1.0000000180025095e-35 1.0000000180025095e-35 576.50000000000011 502.50000000000006 672.50000000000011 588.50000000000011 616.50000000000011 401.50000000000006 393.50000000000006 513.50000000000011 391.50000000000006 1.0000000180025095e-35 417.50000000000006
decision_type=2 2 2 2 2 2 2 2 2 2 2 2 2 2 2 2 2 2 2 2 2 2 2 2 2 2 2 2 2 2
left_child=-1 3 4 9 7 15 8 14 12 24 13 19 21 22 -3 27 -11 -13 25 -7 -9 29 -6 -16 -2 -8 -18 -5 -12 -4
right_child=1 2 6 5 10 11 18 20 -10 16 28 17 -14 -15 23 -17 26 -19 -20 -21 -22 -23 -24 -25 -26 -27 -28 -29 -30 -31
leaf_value=-6.672699165042018 1.496641842475849 5.8417392118204212 12.752051171776031 4.217922663344793 11.547675485174919 10.062956013697928 17.483181695675654 11.521708088199965 21.172222352897734 6.3271036863401617 18.891941725708804 15.419269141084493 12.319516463685231 18.891636995996461 8.9211202695298439 12.096534220117418 8.9084825128774519 21.682786142582135 28.461139130302225 15.001662633206676 16.469064847663265 20.467643215632165 15.940392154029382 13.818352765515968 6.4472071942634432 23.628250531809975 13.801728498261776 9.2416255674503756 25.836288111360599 17.480849127000816
leaf_count=666250 8956 12186 7952 7431 16762 17034 5656 14249 14133 12237 9605 19169 14200 9469 14252 15140 10330 6258 4602 12449 14022 9265 11720 9023 13525 8619 9741 11666 3045 11054
internal_value=0 133.204 154.333 105.34 134.477 124.707 184.411 112.678 169.323 73.8277 161.933 143.768 155.214 147.366 91.09 94.1373 94.0609 169.608 229.652 121.483 139.755 171.296 133.552 108.196 44.75 211.935 112.833 72.8681 205.635 155.023
internal_count=1000000 333750 189814 143936 114333 89147 75481 63732 56604 54789 50601 54910 42471 37951 35461 34237 32308 25427 18877 29483 28271 28271 28482 23275 22481 14275 20071 19097 12650 19006
shrinkage=0.1


Tree=11
num_leaves=31
num_cat=0
split_feature=7 17 19 15 3 22 11 15 15 14 19 14 13 23 21 14 22 22 21 5 13 5 5 20 23 23 14 21 22 21
split_gain=7.19953e+09 1.85524e+08 1.08927e+08 7.82861e+07 7.03262e+07 4.59824e+07 4.47915e+07 4.25101e+07 3.22345e+07 3.07626e+07 2.86402e+07 2.74711e+07 2.47437e+07 1.8437e+07 1.83645e+07 1.81339e+07 1.80682e+07 1.79718e+07 1.66009e+07 1.6493e+07 1.62168e+07 1.34027e+07 1.27088e+07 1.15906e+07 1.13546e+07 1.13079e+07 1.12973e+07 1.11869e+07 1.07361e+07 1.00852e+07
threshold=1.0000000180025095e-35 425.50000000000006 411.50000000000006 608.50000000000011 1.0000000180025095e-35 403.50000000000006 1.0000000180025095e-35 645.50000000000011 576.50000000000011 600.50000000000011 359.50000000000006 588.50000000000011 1.0000000180025095e-35 615.50000000000011 571.50000000000011 437.50000000000006 624.50000000000011 564.50000000000011 615.50000000000011 1.0000000180025095e-35 1.0000000180025095e-35 1.0000000180025095e-35 1.0000000180025095e-35 676.50000000000011 599.50000000000011 397.50000000000006 628.50000000000011 518.50000000000011 419.50000000000006 615.50000000000011
decision_type=2 2 2 2 2 2 2 2 2 2 2 2 2 2 2 2 2 2 2 2 2 2 2 2 2 2 2 2 2 2
left_child=-1 3 7 5 6 15 8 11 16 14 29 18 17 26 28 -2 23 -6 -3 -10 24 -11 -13 -4 -9 -17 -12 -8 -5 -7
right_child=1 2 4 9 12 10 27 20 19 21 13 22 -14 -15 -16 25 -18 -19 -20 -21 -22 -23 -24 -25 -26 -27 -28 -29 -30 -31
leaf_value=-6.0054292586871973 1.9586722177960139 5.6510954450465309 10.668798013904803 5.5133044357282524 16.082676285551997 4.2621946218803846 8.3536853818336603 10.994943970745934 20.272189823557287 16.774285065277603 7.3572540504917203 13.95606466020247 25.475953996315216 14.045174487161086 12.980762525025344 3.5856518679023077 16.800580179107488 21.953492531801913 10.50081385762496 15.001296925402853 18.400821342125763 11.550579954691202 8.7370287666996127 15.498786729671691 15.749990457782893 8.4948084532449961 12.253921100118363 12.960584166620329 10.278660652899113 9.0662309227480815
leaf_count=666250 15197 18517 15390 8242 12029 11357 10925 12622 17946 14888 12751 14008 7020 12556 14225 7747 13944 9204 11406 8871 7154 7330 6996 7337 8340 11899 7473 10185 11088 7103
internal_value=0 119.884 140.155 92.4619 160.095 73.5527 145.668 111.687 158.936 121.647 92.6113 94.4557 203.292 110.353 102.537 45.5253 139.668 186.275 74.997 185.286 142.898 150.509 122.177 122.281 128.868 65.5898 91.6663 105.764 82.4679 61.1068
internal_count=1000000 333750 191894 141856 112851 86083 84598 79043 63488 55773 51240 50927 28253 32780 33555 34843 36671 21233 29923 26817 28116 22218 21004 22727 20962 19646 20224 21110 19330 18460
shrinkage=0.1


Tree=12
num_leaves=31
num_cat=0
split_feature=7 18 5 3 16 16 20 11 20 22 20 20 21 13 21 23 13 23 23 22 20 13 23 19 17 22 14 21 15 8
split_gain=5.83162e+09 1.7064e+08 1.10115e+08 7.45068e+07 6.34707e+07 4.94601e+07 3.85341e+07 3.3003e+07 3.09302e+07 2.87681e+07 2.68072e+07 2.57604e+07 2.28736e+07 2.01276e+07 1.90559e+07 1.70014e+07 1.66343e+07 1.59618e+07 1.55292e+07 1.4048e+07 1.37765e+07 1.33042e+07 1.23478e+07 1.21692e+07 1.14116e+07 1.08774e+07 1.04844e+07 1.00248e+07 9.74857e+06 9.54947e+06
threshold=1.0000000180025095e-35 375.50000000000006 1.0000000180025095e-35 1.0000000180025095e-35 599.50000000000011 631.50000000000011 599.50000000000011 1.0000000180025095e-35 623.50000000000011 592.50000000000011 418.50000000000006 380.50000000000006 595.50000000000011 1.0000000180025095e-35 362.50000000000006 615.50000000000011 1.0000000180025095e-35 425.50000000000006 381.50000000000006 592.50000000000011 627.50000000000011 1.0000000180025095e-35 651.50000000000011 608.50000000000011 661.50000000000011 580.50000000000011 409.50000000000006 623.50000000000011 335.50000000000006 1.0000000180025095e-35
decision_type=2 2 2 2 2 2 2 2 2 2 2 2 2 2 2 2 2 2 2 2 2 2 2 2 2 2 2 2 2 2
left_child=29 4 3 5 6 8 12 10 14 15 25 28 19 20 -3 26 24 -12 -8 -2 -7 -11 -10 -16 -13 -4 -5 -20 -6 -1
right_child=1 2 7 9 11 13 18 -9 22 21 17 16 -14 -15 23 -17 -18 -19 27 -21 -22 -23 -24 -25 -26 -27 -28 -29 -30 -31
leaf_value=-5.0261492884588961 0.41531676730936673 6.6296640756616361 6.0058010221895186 10.082878926506254 4.5907736796825365 12.682744935358187 5.9389958602881316 5.5384246593080801 12.323531110102813 19.868301433760777 9.8300526173468867 9.5013134148597018 6.9204876218319491 19.669865587887898 9.3951189612813462 19.409973160571557 16.434429160264639 14.481599481977353 8.7819973526824135 5.0673547816648856 17.228702520484699 26.942652911663629 17.006290280484553 13.831233506151179 14.180859965717509 10.519374946425895 15.913577464714093 13.58295319955953 9.3560604828415563 -5.7833325208011637
leaf_count=332997 15820 14922 12737 5223 6491 18010 11627 17501 16190 10647 12885 15495 18153 9540 15991 7984 7702 17258 11459 11008 10584 3543 8634 10083 7852 9193 7530 7010 12678 333253
internal_value=0 107.895 125.426 141.693 78.7298 128.267 60.3223 92.9531 111.665 181.652 105.58 106.25 41.7908 156.924 94.796 157.912 124.046 124.932 88.019 23.2413 143.654 216.346 139.522 111.106 110.751 78.9788 135.256 106.042 77.4244 -54.0489
internal_count=1000000 333750 208455 138881 125295 103954 75077 69574 65820 34927 52073 50218 44981 38134 40996 20737 31049 30143 30096 26828 28594 14190 24824 26074 23347 21930 12753 18469 19169 666250
shrinkage=0.1


Tree=13
num_leaves=31
num_cat=0
split_feature=7 15 21 22 14 13 14 20 17 23 19 11 22 19 3 23 3 13 18 17 20 23 17 11 5 18 19 5 3 23
split_gain=4.72361e+09 1.58439e+08 1.07697e+08 6.22751e+07 5.46276e+07 4.7902e+07 3.8173e+07 3.345e+07 3.31724e+07 2.3924e+07 2.27281e+07 2.1824e+07 2.11202e+07 2.02871e+07 1.79505e+07 1.71811e+07 1.59072e+07 1.58611e+07 1.35671e+07 1.34388e+07 1.27346e+07 1.21509e+07 1.17754e+07 1.16224e+07 1.11016e+07 1.04679e+07 1.01517e+07 9.50299e+06 9.49826e+06 8.88835e+06
threshold=1.0000000180025095e-35 347.50000000000006 583.50000000000011 371.50000000000006 401.50000000000006 1.0000000180025095e-35 632.50000000000011 351.50000000000006 613.50000000000011 535.50000000000011 391.50000000000006 1.0000000180025095e-35 399.50000000000006 403.50000000000006 1.0000000180025095e-35 377.50000000000006 1.0000000180025095e-35 1.0000000180025095e-35 513.50000000000011 351.50000000000006 640.50000000000011 615.50000000000011 351.50000000000006 1.0000000180025095e-35 1.0000000180025095e-35 621.50000000000011 624.50000000000011 1.0000000180025095e-35 1.0000000180025095e-35 369.50000000000006
decision_type=2 2 2 2 2 2 2 2 2 2 2 2 2 2 2 2 2 2 2 2 2 2 2 2 2 2 2 2 2 2
left_child=-1 4 3 10 12 8 9 22 13 20 -3 15 -2 -4 26 -9 -10 25 -12 -14 -5 -15 -6 27 28 -8 -7 -11 -17 -21
right_child=1 2 5 6 7 14 17 11 16 23 18 -13 19 21 -16 24 -18 -19 -20 29 -22 -23 -24 -25 -26 -27 -28 -29 -30 -31
leaf_value=-4.8643977123675661 1.482467464215635 3.8340102731914643 8.1564227345388645 5.8345175442419377 2.5889630368492798 14.431467553579692 10.954631417610688 8.5085901283714396 13.948290780135011 14.712382036151864 6.1972073918933441 6.3027561216356931 2.8714808870487074 10.906301398590069 22.829765328453309 13.288993368870605 19.592574683907458 18.041214783316352 10.552129592829564 4.5328511047087829 10.365161436107689 15.45052675645562 7.1691301775235976 7.8972422803140025 9.9096632665275965 15.46328427381809 19.469318884834333 9.7775841255037346 19.314855048467475 9.1156614678372119
leaf_count=666250 18658 18661 16730 17474 8713 10753 13604 12745 19600 11806 14681 11165 9991 15230 5595 10488 6700 7310 13952 6683 9619 9589 15778 5730 6986 8286 6369 5829 3485 11540
internal_value=0 97.1058 113.033 94.2389 67.2996 139.377 111.305 85.1212 126.07 94.6518 65.4948 101.346 40.9278 108.478 179.123 114.039 153.862 140.081 83.1923 58.1898 74.4306 126.62 55.3967 118.099 131.646 126.613 163.054 130.813 147.919 74.3499
internal_count=1000000 333750 217518 126952 116232 90566 79658 69360 67849 50458 47294 44869 46872 41549 22717 33704 26300 29200 28633 28214 27093 24819 24491 23365 20959 21890 17122 17635 13973 18223
shrinkage=0.1


Tree=14
num_leaves=31
num_cat=0
split_feature=7 19 23 11 17 5 16 16 3 13 21 22 5 5 18 14 14 17 16 3 23 20 14 18 22 14 17 23 16 22
split_gain=3.82612e+09 1.50046e+08 9.41275e+07 5.8964e+07 5.55823e+07 4.52568e+07 3.92869e+07 3.48366e+07 3.32101e+07 2.5189e+07 2.30408e+07 1.98582e+07 1.96347e+07 1.75738e+07 1.52089e+07 1.50535e+07 1.46969e+07 1.45768e+07 1.36095e+07 1.30503e+07 1.26234e+07 1.182e+07 1.17723e+07 9.19205e+06 8.93599e+06 8.347e+06 8.34071e+06 8.17648e+06 8.11856e+06 8.10886e+06
threshold=1.0000000180025095e-35 632.50000000000011 595.50000000000011 1.0000000180025095e-35 649.50000000000011 1.0000000180025095e-35 364.50000000000006 344.50000000000006 1.0000000180025095e-35 1.0000000180025095e-35 346.50000000000006 640.50000000000011 1.0000000180025095e-35 1.0000000180025095e-35 605.50000000000011 608.50000000000011 579.50000000000011 661.50000000000011 567.50000000000011 1.0000000180025095e-35 397.50000000000006 631.50000000000011 616.50000000000011 663.50000000000011 351.50000000000006 381.50000000000006 525.50000000000011 409.50000000000006 368.50000000000006 636.50000000000011
decision_type=2 2 2 2 2 2 2 2 2 2 2 2 2 2 2 2 2 2 2 2 2 2 2 2 2 2 2 2 2 2
left_child=-1 2 4 5 7 8 17 21 11 13 -9 20 16 19 27 24 29 23 -5 26 -3 -2 -10 -4 -12 -11 -8 -7 -13 -6
right_child=1 3 6 18 12 14 9 10 22 25 15 28 -14 -15 -16 -17 -18 -19 -20 -21 -22 -23 -24 -25 -26 -27 -28 -29 -30 -31
leaf_value=-4.3779578362733433 -0.5636721085154951 8.9103011883317134 3.8088351177462485 5.8613377887645823 6.16578814196337 5.3589373647633955 8.3459727128324115 2.4913352376363802 16.215380035763108 11.941594630543728 2.4231594169188626 12.902748416434248 5.2524297573242293 7.1242470256240171 12.426986362899003 9.4644054561672828 12.328453543090342 9.8780674635843937 10.113992987425602 15.322837620053413 13.147286076757752 3.6657265363831693 21.920222046319459 8.2693132286896294 6.7174867217407384 17.042558334640191 12.393154531321168 9.6125046357536021 17.495850310592317 10.710078531591151
leaf_count=666250 17832 11713 13688 17216 10837 7633 10712 18478 9472 5253 7502 6118 14686 13518 12098 13554 12511 10584 13369 6818 17594 10498 5852 6974 13685 8240 9706 11078 10373 6158
internal_value=0 87.3952 71.2473 115.236 53.8411 127.89 96.8479 38.364 143.643 113.117 53.4438 130.159 82.4017 100.718 96.6386 68.6186 97.2726 68.6024 77.2021 115.348 114.539 10.0358 183.94 53.1437 51.9693 150.567 102.699 78.773 157.919 78.1237
internal_count=1000000 333750 211234 122516 125741 91931 85493 81549 61122 54247 53219 45798 44192 40754 30809 34741 29506 31246 30585 27236 29307 28330 15324 20662 21187 13493 20418 18711 16491 16995
shrinkage=0.1


Tree=15
num_leaves=31
num_cat=0
split_feature=7 20 18 15 14 11 3 21 23 16 14 19 16 3 22 17 16 15 16 22 19 15 21 22 18 16 23 5 22 17
split_gain=3.09916e+09 1.4094e+08 9.5394e+07 5.61272e+07 4.64297e+07 3.92704e+07 3.3263e+07 3.2032e+07 3.06549e+07 2.51158e+07 2.11332e+07 2.07706e+07 2.07389e+07 1.8308e+07 1.62537e+07 1.33045e+07 1.32748e+07 1.23564e+07 1.18527e+07 1.16799e+07 1.08921e+07 1.05611e+07 1.01791e+07 9.92597e+06 9.30261e+06 9.15669e+06 8.61546e+06 7.95283e+06 7.90272e+06 7.75695e+06
threshold=1.0000000180025095e-35 334.50000000000006 601.50000000000011 576.50000000000011 340.50000000000006 1.0000000180025095e-35 1.0000000180025095e-35 362.50000000000006 349.50000000000006 373.50000000000006 360.50000000000006 456.50000000000006 651.50000000000011 1.0000000180025095e-35 620.50000000000011 339.50000000000006 591.50000000000011 460.50000000000006 659.50000000000011 318.50000000000006 592.50000000000011 600.50000000000011 428.50000000000006 604.50000000000011 687.50000000000011 627.50000000000011 433.50000000000006 1.0000000180025095e-35 552.50000000000011 319.50000000000006
decision_type=2 2 2 2 2 2 2 2 2 2 2 2 2 2 2 2 2 2 2 2 2 2 2 2 2 2 2 2 2 2
left_child=-1 4 3 7 14 6 10 19 21 23 -4 24 15 20 25 -9 27 -8 28 -3 -11 -6 -7 -5 -10 -2 -17 -12 -13 -21
right_child=1 2 5 9 8 22 17 12 11 13 16 18 -14 -15 -16 26 -18 -19 -20 29 -22 -23 -24 -25 -26 -27 -28 -29 -30 -31
leaf_value=-3.9401621617090727 -0.93968896196791563 0.21536263128852809 9.0563501222498619 5.5484373737646671 2.0251762869811727 5.7699381229435565 14.031082264780588 3.0927520843273117 4.3079368600046619 8.6764285977950166 13.125542058644436 6.3746944457778767 10.25646823184355 15.628764105199204 4.7829648401433005 5.0971175487099503 15.842951189063479 19.515963522815902 12.809528798240152 1.6673375510189676 12.801825241215514 6.1491182553464627 10.095896143775988 9.9796890445966469 8.7528361005641422 3.1375009233686457 9.1764526576991301 8.7589032063139367 10.716725885969359 5.9777069085962298
leaf_count=666250 15123 8962 17847 12717 15547 9508 7617 10889 15198 15686 12482 9405 16970 8779 14611 9178 12811 8914 8938 6157 10811 10340 12711 8390 6822 8664 11877 6264 7562 12970
internal_value=0 78.6557 93.2807 76.4112 49.781 118.806 131.058 58.8582 64.4525 100.384 118.066 79.4302 74.314 116.709 21.5783 59.306 133.619 169.887 98.624 31.9437 103.596 36.724 82.4472 73.0985 56.8501 5.45356 73.9825 116.664 83.0989 45.9019
internal_count=1000000 333750 221540 133386 112210 88154 65935 77003 73812 56383 49404 47925 48914 35276 38398 31944 31557 16531 25905 28089 26497 25887 22219 21107 22020 23787 21055 18746 16967 19127
shrinkage=0.1


Tree=16
num_leaves=31
num_cat=0
split_feature=7 21 17 22 22 4 13 20 19 4 14 19 18 15 3 18 15 23 3 14 17 22 3 18 14 19 18 8 5 15
split_gain=2.51032e+09 1.31833e+08 8.54179e+07 5.49819e+07 4.77067e+07 3.77834e+07 3.25655e+07 2.91164e+07 2.3886e+07 2.24805e+07 1.85227e+07 1.83544e+07 1.68743e+07 1.60842e+07 1.4939e+07 1.48387e+07 1.31022e+07 1.26291e+07 1.1994e+07 1.11129e+07 1.11001e+07 1.04962e+07 9.66775e+06 9.12892e+06 8.10594e+06 7.99357e+06 7.81242e+06 7.73507e+06 7.49678e+06 7.21609e+06
threshold=1.0000000180025095e-35 659.50000000000011 347.50000000000006 327.50000000000006 351.50000000000006 1.0000000180025095e-35 1.0000000180025095e-35 664.50000000000011 339.50000000000006 1.0000000180025095e-35 664.50000000000011 339.50000000000006 327.50000000000006 677.50000000000011 1.0000000180025095e-35 521.50000000000011 657.50000000000011 349.50000000000006 1.0000000180025095e-35 417.50000000000006 701.50000000000011 632.50000000000011 1.0000000180025095e-35 625.50000000000011 664.50000000000011 305.50000000000006 638.50000000000011 1.0000000180025095e-35 1.0000000180025095e-35 657.50000000000011
decision_type=2 2 2 2 2 2 2 2 2 2 2 2 2 2 2 2 2 2 2 2 2 2 2 2 2 2 2 2 2 2
left_child=27 2 7 10 12 8 9 11 26 15 17 -2 -3 19 23 -6 24 -4 -8 -10 28 -9 -11 -7 -13 -19 -5 -1 -14 -17
right_child=1 4 3 5 6 14 18 21 13 22 -12 16 20 -15 -16 29 -18 25 -20 -21 -22 -23 -24 -25 -26 -27 -28 -29 -30 -31
leaf_value=-3.2052825362006638 -1.071767464895063 4.1305191024067112 0.16574718403108024 2.9515502942449925 6.8104045431138474 8.5077599861038085 13.557342843271194 4.1627738220874075 4.8020018449716098 11.699992705604615 7.104959855006479 0.1387725938528471 8.5895947112390676 11.27149549304408 14.98905112438468 9.360343805168462 5.6724927786610841 1.3961423606283969 19.493482845338093 8.7741007851181774 11.617610531731691 8.3537842062297383 17.029085918137049 12.509558609462491 4.2047371857154276 5.6756304446520813 6.8669310211816983 -3.8867474621797218 4.3499543968896619 13.610351897512505
leaf_count=332997 17344 13095 11022 13966 19182 15181 13792 16341 12152 13501 15640 14586 12529 13629 8014 11581 11493 6297 4519 16755 8045 9421 4552 9128 7386 14224 8024 333253 6252 6099
internal_value=0 70.7901 56.5564 70.9037 98.5416 84.5409 113.703 29.5687 70.5614 101.525 42.9117 15.6834 70.7316 84.3951 112.448 87.3661 29.3663 28.96 150.223 71.043 85.096 56.954 130.437 100.104 15.0557 43.6244 43.8025 -35.4615 71.7826 108.265
internal_count=1000000 333750 220603 144032 113147 96849 73226 76571 64526 54915 47183 50809 39921 42536 32323 36862 33465 31543 18311 28907 26826 25762 18053 24309 21972 20521 21990 666250 18781 17680
shrinkage=0.1


Tree=17
num_leaves=31
num_cat=0
split_feature=7 23 16 17 14 18 16 20 14 13 3 18 5 18 11 13 22 22 19 4 14 20 22 20 19 11 14 17 22 13
split_gain=2.03336e+09 1.22721e+08 7.99091e+07 5.33399e+07 4.51792e+07 3.13923e+07 2.86569e+07 2.62257e+07 2.23711e+07 2.19003e+07 1.96519e+07 1.64453e+07 1.62254e+07 1.56434e+07 1.54897e+07 1.38397e+07 1.21991e+07 1.16253e+07 1.10245e+07 1.09899e+07 1.08499e+07 1.03201e+07 9.45756e+06 9.26052e+06 8.77089e+06 7.57537e+06 7.52403e+06 7.52021e+06 7.27538e+06 6.97878e+06
threshold=1.0000000180025095e-35 659.50000000000011 344.50000000000006 605.50000000000011 668.50000000000011 303.50000000000006 555.50000000000011 619.50000000000011 315.50000000000006 1.0000000180025095e-35 1.0000000180025095e-35 695.50000000000011 1.0000000180025095e-35 339.50000000000006 1.0000000180025095e-35 1.0000000180025095e-35 276.50000000000006 664.50000000000011 330.50000000000006 1.0000000180025095e-35 684.50000000000011 636.50000000000011 660.50000000000011 462.50000000000006 387.50000000000006 1.0000000180025095e-35 315.50000000000006 661.50000000000011 648.50000000000011 1.0000000180025095e-35
decision_type=2 2 2 2 2 2 2 2 2 2 2 2 2 2 2 2 2 2 2 2 2 2 2 2 2 2 2 2 2 2
left_child=-1 2 7 5 6 22 12 11 -7 13 19 20 17 -5 16 23 -10 25 -9 29 28 -15 -4 -8 -18 -3 -11 -20 -2 -6
right_child=1 4 3 9 10 8 15 18 14 26 -12 -13 -14 21 -16 -17 24 -19 27 -21 -22 -23 -24 -25 -26 -27 -28 -29 -30 -31
leaf_value=-3.1915312043851176 -2.9261448373837773 7.0320949216611197 0.61087386953852041 4.9356027347203817 8.0826652711355731 3.273122437725156 6.5972923572129547 1.9716162076032171 5.2724230803782213 8.7303843120756444 15.900529816999686 3.7422659676527203 3.140075484426549 7.5447333532792769 4.0680735609363552 13.329177971721434 7.2345296595461122 10.169287771911854 4.6960688679149722 13.40549139710995 2.3310963808019518 11.521638816286353 4.6027027858562253 10.42849491320597 11.28956429820505 2.4312779056561062 13.678900854333154 8.8601680673944809 0.85985744870764413 12.523466486443096
leaf_count=666250 14335 14118 17612 14382 14132 19400 11764 9709 8451 4461 9217 14183 14078 17984 10501 8428 8675 9396 12875 9234 10381 10241 8952 13606 13850 4794 9872 6540 7858 4721
internal_value=0 63.7111 49.9468 63.7551 90.4254 48.2447 76.4636 23.6734 60.761 87.5739 118.939 9.00104 59.1448 76.1991 73.8713 98.183 85.1231 72.9424 47.229 105.791 -3.37398 89.8769 19.5611 86.5198 97.2786 58.6583 121.387 60.9876 -15.8561 91.9469
internal_count=1000000 333750 220262 144381 113488 87441 76184 75881 60877 56940 37304 46757 42386 42607 41477 33798 30976 28308 29124 28087 32574 28225 26564 25370 22525 18912 14333 19415 22193 18853
shrinkage=0.1


Tree=18
num_leaves=31
num_cat=0
split_feature=7 15 19 21 5 11 3 5 22 13 3 20 21 20 18 18 14 16 17 21 17 14 20 20 17 11 17 20 23 3
split_gain=1.64702e+09 1.17029e+08 7.32454e+07 5.04832e+07 4.54304e+07 3.44443e+07 3.25088e+07 2.65254e+07 2.28948e+07 2.08732e+07 1.83217e+07 1.57622e+07 1.4663e+07 1.437e+07 1.37639e+07 1.17053e+07 1.12236e+07 1.08801e+07 1.03251e+07 9.97966e+06 9.01265e+06 8.77701e+06 8.75723e+06 8.19663e+06 7.50864e+06 7.34829e+06 7.34202e+06 7.32288e+06 6.96527e+06 6.92063e+06
threshold=1.0000000180025095e-35 645.50000000000011 322.50000000000006 321.50000000000006 1.0000000180025095e-35 1.0000000180025095e-35 1.0000000180025095e-35 1.0000000180025095e-35 652.50000000000011 1.0000000180025095e-35 1.0000000180025095e-35 310.50000000000006 337.50000000000006 704.50000000000011 513.50000000000011 707.50000000000011 356.50000000000006 671.50000000000011 311.50000000000006 304.50000000000006 533.50000000000011 620.50000000000011 434.50000000000006 305.50000000000006 701.50000000000011 1.0000000180025095e-35 469.50000000000006 648.50000000000011 361.50000000000006 1.0000000180025095e-35
decision_type=2 2 2 2 2 2 2 2 2 2 2 2 2 2 2 2 2 2 2 2 2 2 2 2 2 2 2 2 2 2
left_child=29 2 8 11 6 7 9 10 13 12 15 -4 -3 19 28 23 -8 24 -14 -2 -9 -10 -7 -5 -13 -18 -16 -12 -6 -1
right_child=1 4 3 5 14 22 16 20 21 -11 27 17 18 -15 26 -17 25 -19 -20 -21 -22 -23 -24 -25 -26 -27 -28 -29 -30 -31
leaf_value=-3.0584924067519643 -3.447451824753367 4.8273597702898767 0.2058050491248849 4.3883159217340264 1.2028798631619675 1.5239558323839437 9.9179032829611895 3.526561314664312 2.6715214690168936 11.695334070113693 10.874399984545162 1.6714497822731049 5.8882099253596971 3.1161289810868342 5.3373707252938125 10.985917868472733 16.28700425374738 6.7846031468095154 9.9450030091313852 0.37832370230761592 7.3593841600828789 6.6084065854027862 5.3239235316153639 8.2386919003637527 5.7193489467114516 10.785352423678042 9.2483818166931666 15.978894246284097 5.0632160997342401 -2.3142566052600961
leaf_count=499638 9804 14955 14663 7948 7307 10732 6984 13190 14841 14964 8036 15332 9124 13344 9080 10761 9613 10604 20083 22389 11470 9157 13945 18164 6536 3248 10183 4322 12971 166612
internal_value=0 57.34 43.445 56.1888 82.5756 69.0607 96.4298 79.8636 16.7418 84.6754 93.2731 29.2712 73.7382 3.56921 54.9061 82.1049 131.451 41.5596 86.777 -7.86771 53.0931 41.7373 36.7132 70.6671 28.813 148.976 74.0485 126.596 36.7218 -28.7238
internal_count=1000000 333750 215238 145703 118512 98568 78971 73891 69535 59126 49231 47135 44162 45537 39541 36873 19845 32472 29207 32193 24660 23998 24677 26112 21868 12861 19263 12358 20278 666250
shrinkage=0.1


Tree=19
num_leaves=31
num_cat=0
split_feature=7 23 17 22 16 18 3 14 20 16 19 22 16 11 20 14 13 3 14 14 16 19 14 17 15 13 20 18 21 21
split_gain=1.33409e+09 1.08978e+08 7.59661e+07 4.88634e+07 3.33746e+07 3.08705e+07 2.87498e+07 2.27481e+07 2.19244e+07 1.89532e+07 1.79767e+07 1.56351e+07 1.38664e+07 1.15249e+07 1.13975e+07 1.12965e+07 1.07955e+07 9.75917e+06 9.64784e+06 9.61563e+06 9.48011e+06 9.38472e+06 7.73392e+06 7.25956e+06 7.20636e+06 7.0205e+06 6.86186e+06 6.57338e+06 6.54877e+06 6.46308e+06
threshold=1.0000000180025095e-35 317.50000000000006 673.50000000000011 644.50000000000011 695.50000000000011 315.50000000000006 1.0000000180025095e-35 340.50000000000006 680.50000000000011 607.50000000000011 680.50000000000011 616.50000000000011 719.50000000000011 1.0000000180025095e-35 409.50000000000006 604.50000000000011 1.0000000180025095e-35 1.0000000180025095e-35 283.50000000000006 708.50000000000011 735.50000000000011 700.50000000000011 348.50000000000006 298.50000000000006 310.50000000000006 1.0000000180025095e-35 611.50000000000011 277.50000000000006 354.50000000000006 611.50000000000011
decision_type=2 2 2 2 2 2 2 2 2 2 2 2 2 2 2 2 2 2 2 2 2 2 2 2 2 2 2 2 2 2
left_child=-1 4 3 5 7 18 10 23 12 14 13 21 19 20 -5 27 26 -11 -3 28 -4 -9 -10 -2 -20 -16 -8 -6 -7 -12
right_child=1 2 6 9 15 8 16 11 22 17 29 -13 -14 -15 25 -17 -18 -19 24 -21 -22 -23 -24 -25 -26 -27 -28 -29 -30 -31
leaf_value=-2.5851403107954791 -3.7051218682086238 -1.6076654872333351 6.5578395884530281 3.8021388840863519 0.75419510992274263 -0.65670387382261797 9.3020077939093238 0.0433082272622939 5.0350204102542762 8.6375964645173298 8.9874981309977411 4.8621972226026156 6.5585775993632582 3.6051752702209612 6.4901796911991498 7.5354167147934952 16.655055695174383 13.603816263536146 -0.37052426299124935 5.3388447729624424 10.699704836633558 3.8954178623005484 9.001947193613935 0.01177560191720245 3.5027236951507654 10.871800352821905 13.846854541567684 4.8421794973860068 2.8322373473019904 12.902462341961154
leaf_count=666250 7491 8780 20873 13493 5459 8323 8610 21191 7528 16010 10829 18867 12852 9342 14706 12651 4564 5256 6962 9708 7516 9015 14157 17602 15494 4867 5409 14075 15214 6906
internal_value=0 51.606 63.9636 51.2627 25.183 38.04 90.2662 13.5132 50.0263 75.3606 78.861 26.0367 37.691 66.5183 60.3822 52.0744 124.308 98.6502 12.0298 26.9073 76.544 11.9297 76.2482 -10.9783 23.0191 75.7971 110.556 36.9975 15.985 105.12
internal_count=1000000 333750 227399 153350 106351 99018 74049 74166 67782 54332 55466 49073 46097 37731 33066 32185 18583 21266 31236 33245 28389 30206 21685 25093 22456 19573 14019 19534 23537 17735
shrinkage=0.1


Tree=20
num_leaves=31
num_cat=0
split_feature=7 15 11 4 22 19 14 14 21 21 21 3 22 3 17 22 21 18 19 3 21 18 14 18 17 21 5 16 8 20
split_gain=1.08061e+09 1.02456e+08 7.35449e+07 5.71108e+07 3.58416e+07 3.04511e+07 2.41535e+07 2.14173e+07 1.97558e+07 1.8101e+07 1.80136e+07 1.49276e+07 1.36146e+07 1.27417e+07 1.2303e+07 1.04946e+07 1.03945e+07 9.73024e+06 9.69063e+06 9.35314e+06 7.94377e+06 7.59126e+06 7.3548e+06 7.25399e+06 6.959e+06 6.79352e+06 6.56716e+06 6.39605e+06 6.26521e+06 6.10469e+06
threshold=1.0000000180025095e-35 305.50000000000006 1.0000000180025095e-35 1.0000000180025095e-35 700.50000000000011 684.50000000000011 262.50000000000006 344.50000000000006 683.50000000000011 358.50000000000006 416.50000000000006 1.0000000180025095e-35 306.50000000000006 1.0000000180025095e-35 294.50000000000006 407.50000000000006 615.50000000000011 715.50000000000011 728.50000000000011 1.0000000180025095e-35 691.50000000000011 553.50000000000011 644.50000000000011 759.50000000000011 331.50000000000006 390.50000000000006 1.0000000180025095e-35 723.50000000000011 1.0000000180025095e-35 498.50000000000006
decision_type=2 2 2 2 2 2 2 2 2 2 2 2 2 2 2 2 2 2 2 2 2 2 2 2 2 2 2 2 2 2
left_child=28 5 3 4 6 8 -3 23 12 27 21 18 -2 20 -11 -12 -7 22 25 29 -6 -4 -14 -5 -10 -9 -17 -8 -1 -16
right_child=1 2 10 7 13 16 9 11 24 14 15 -13 17 -15 19 26 -18 -19 -20 -21 -22 -23 -24 -25 -26 -27 -28 -29 -30 -31
leaf_value=-2.0198539446750257 -2.8676785258180457 1.4917386039208187 -0.99500675037691222 5.6905123082064302 5.9836701228716178 3.1334255778884796 2.0340485194790365 6.2543044687418794 0.82698174132157642 3.9561211266409027 2.0905293688590834 14.231672972997259 -1.5848149212166085 11.560552337412267 5.0831294962939175 6.9446029418381388 6.8272634208044343 3.5235359062959599 12.663880189225054 11.104039883020468 9.7834877749170737 2.5861115112638107 2.0612058643220701 10.117130119165592 4.5836364485289076 9.9758899471357161 3.097246987812873 5.8999992633069178 -2.6331629755053103 8.5383250413824854
leaf_count=332997 14477 21093 13149 15257 18139 19875 15554 8074 7453 11352 13901 9499 15308 8679 10229 13366 12353 9438 7752 6747 7897 10766 8664 4888 14573 12497 6641 5904 333253 10225
internal_value=0 46.4454 58.0807 68.3595 55.5347 20.0617 44.0256 93.9838 8.33872 54.2567 27.1881 108.012 -3.06186 82.4232 67.2136 42.011 45.4927 8.03744 96.5068 78.754 71.362 6.17133 -2.67064 67.6459 33.1249 85.1519 56.6754 30.9773 -23.2663 68.1039
internal_count=1000000 333750 231609 173786 115819 102141 81104 57967 69913 60011 57823 37822 47887 34715 38553 33908 32228 33410 28323 27201 26036 23915 23972 20145 22026 20571 20007 21458 666250 20454
shrinkage=0.1


Tree=21
num_leaves=31
num_cat=0
split_feature=7 16 20 18 23 18 19 14 17 5 19 19 3 19 14 5 19 21 20 13 13 22 17 21 15 5 14 3 23 3
split_gain=8.75295e+08 9.60215e+07 7.17793e+07 4.55675e+07 3.20169e+07 2.74822e+07 2.56192e+07 2.14499e+07 1.79765e+07 1.64658e+07 1.51436e+07 1.35158e+07 1.26425e+07 1.23881e+07 1.15133e+07 1.11666e+07 9.91232e+06 9.14227e+06 8.98805e+06 8.0753e+06 8.00652e+06 7.81722e+06 7.5055e+06 6.57088e+06 6.15372e+06 6.095e+06 5.99142e+06 5.83028e+06 5.64138e+06 5.60554e+06
threshold=1.0000000180025095e-35 294.50000000000006 660.50000000000011 315.50000000000006 707.50000000000011 335.50000000000006 640.50000000000011 724.50000000000011 327.50000000000006 1.0000000180025095e-35 292.50000000000006 367.50000000000006 1.0000000180025095e-35 387.50000000000006 704.50000000000011 1.0000000180025095e-35 512.50000000000011 317.50000000000006 281.50000000000006 1.0000000180025095e-35 1.0000000180025095e-35 700.50000000000011 323.50000000000006 691.50000000000011 588.50000000000011 1.0000000180025095e-35 291.50000000000006 1.0000000180025095e-35 259.50000000000006 1.0000000180025095e-35
decision_type=2 2 2 2 2 2 2 2 2 2 2 2 2 2 2 2 2 2 2 2 2 2 2 2 2 2 2 2 2 2
left_child=29 5 3 11 7 18 9 10 28 14 -5 -3 20 -10 22 21 -6 -13 -2 24 -8 -12 -4 -9 -15 -19 -20 -18 -7 -1
right_child=1 2 6 4 16 8 12 23 13 -11 15 17 -14 19 -16 -17 27 25 26 -21 -22 -23 -24 -25 -26 -27 -28 -29 -30 -31
leaf_value=-2.2614639556976188 -3.4259259236052966 -0.67072299221936382 3.9059373300532947 0.43663888055090105 6.1342367543549123 -2.4207283556690626 7.7849071964066132 5.6029916795924573 1.8100471923920687 3.8162835761492531 4.1652568491049342 0.27811562170568344 13.759596385675767 2.7486098567447628 10.485115583620866 1.6838875257477668 8.5671630512300663 5.1513482320974937 -2.2588595234208344 8.2528097998292349 12.217710471499657 7.973785941105529 7.6776189767855731 9.435598200574395 6.2949114062875742 1.5304157744878588 1.2533712717094128 13.07783191980144 1.3104793301014128 -1.5916620526140477
leaf_count=499638 9335 18055 7825 15960 16044 5455 16181 14328 17320 16877 18153 9973 7119 11634 10014 12803 11505 14068 6830 6685 5446 7665 16197 6504 8445 6943 16813 3816 15757 166612
internal_value=0 41.8008 52.7586 40.2751 51.8642 15.5449 77.1769 40.6969 27.4293 63.7016 30.2777 15.0408 101.044 38.9388 76.3651 40.9854 78.7145 27.7138 -7.98596 52.4241 89.0115 52.9596 64.4902 67.9958 42.4014 39.5483 2.38757 96.9063 3.5094 -20.9396
internal_count=1000000 333750 235476 155817 106778 98274 79659 75413 65296 50913 54581 49039 28746 44084 34036 38621 31365 30984 32978 26764 21627 25818 24022 20832 20079 21011 23643 15321 21212 666250
shrinkage=0.1


Tree=22
num_leaves=31
num_cat=0
split_feature=7 18 22 17 20 5 13 11 21 23 15 15 13 19 22 12 16 22 23 4 14 12 20 3 19 21 3 15 23 15
split_gain=7.08989e+08 8.92975e+07 6.04499e+07 4.20598e+07 2.92487e+07 2.88412e+07 2.11784e+07 2.03768e+07 1.90286e+07 1.58792e+07 1.50531e+07 1.34152e+07 1.33155e+07 1.12281e+07 1.01576e+07 9.64562e+06 9.58397e+06 9.53059e+06 8.92552e+06 8.32548e+06 7.10814e+06 6.83915e+06 6.83798e+06 6.56324e+06 6.14672e+06 6.11166e+06 5.72281e+06 5.39741e+06 5.39676e+06 5.33153e+06
threshold=1.0000000180025095e-35 695.50000000000011 323.50000000000006 713.50000000000011 305.50000000000006 1.0000000180025095e-35 1.0000000180025095e-35 1.0000000180025095e-35 284.50000000000006 723.50000000000011 709.50000000000011 729.50000000000011 1.0000000180025095e-35 276.50000000000006 347.50000000000006 1.0000000180025095e-35 715.50000000000011 419.50000000000006 251.50000000000003 1.0000000180025095e-35 429.50000000000006 1.0000000180025095e-35 281.50000000000006 1.0000000180025095e-35 411.50000000000006 623.50000000000011 1.0000000180025095e-35 392.50000000000006 639.50000000000011 310.50000000000006
decision_type=2 2 2 2 2 2 2 2 2 2 2 2 2 2 2 2 2 2 2 2 2 2 2 2 2 2 2 2 2 2
left_child=-1 2 8 4 18 6 10 9 28 13 14 16 15 -6 -3 25 22 -7 -4 29 -20 -16 -10 -8 -19 -5 -11 -9 -2 -15
right_child=1 5 3 12 7 17 23 27 11 26 -12 -13 -14 19 21 -17 -18 24 20 -21 -22 -23 -24 -25 -26 -27 -28 -29 -30 -31
leaf_value=-1.8845672888010121 -3.3627097243099886 2.9885376448388441 -2.4072703755784044 2.9022426612414094 1.1268613057070398 1.8825987179151242 9.3740644820053856 -1.0360223410515235 -3.0502603879354186 6.3788941027134847 9.1162949056178544 3.9268734304675554 9.3672929953175981 1.1948963525298515 5.3135566091968069 7.7815776013819375 2.894882981192715 3.1794737444696586 -0.61590950144566969 7.1011947722817501 2.7284097190990773 8.9168613907123699 0.39823724455786014 13.947877843280878 6.7632619939953731 6.316650575606146 10.759971902903732 2.3773390865725021 -0.071237813486051127 4.694012717162301
leaf_count=666250 13653 12357 8768 13913 11671 14178 12706 7606 8059 12003 14626 14754 11246 6333 15626 11232 10971 8160 11187 10221 14715 7946 20069 4166 11574 8412 3967 11850 7843 13938
internal_value=0 37.6208 26.8196 37.9901 27.652 62.3921 74.3561 38.442 3.53518 47.8172 64.1178 13.5753 63.8934 37.6456 53.1082 53.9134 3.87988 38.604 3.50488 47.7416 12.8401 65.2821 -5.89798 105.034 52.8137 41.8878 74.6717 10.4294 -21.6179 36.0083
internal_count=1000000 333750 232411 157062 112259 101339 67427 77589 75349 58133 50555 53853 44803 42163 35929 33557 39099 33912 34670 30492 25902 23572 28128 16872 19734 22325 15970 19456 21496 20271
shrinkage=0.1


Tree=23
num_leaves=31
num_cat=0
split_feature=7 14 17 16 21 23 17 15 4 19 23 3 20 21 19 20 18 20 21 3 21 19 5 20 4 17 3 22 9 19
split_gain=5.74281e+08 8.49566e+07 5.28519e+07 3.92254e+07 3.19301e+07 2.63391e+07 2.04423e+07 1.82159e+07 1.47677e+07 1.41851e+07 1.3815e+07 1.25724e+07 9.96246e+06 9.57545e+06 9.43639e+06 8.68734e+06 8.66576e+06 8.07651e+06 7.90152e+06 6.88862e+06 6.85336e+06 6.495e+06 6.34738e+06 6.2673e+06 5.78991e+06 5.74008e+06 5.5127e+06 5.26695e+06 5.07467e+06 4.92466e+06
threshold=1.0000000180025095e-35 656.50000000000011 278.50000000000006 671.50000000000011 663.50000000000011 739.50000000000011 693.50000000000011 496.50000000000006 1.0000000180025095e-35 313.50000000000006 349.50000000000006 1.0000000180025095e-35 716.50000000000011 719.50000000000011 680.50000000000011 269.50000000000006 465.50000000000006 736.50000000000011 350.50000000000006 1.0000000180025095e-35 271.50000000000006 752.50000000000011 1.0000000180025095e-35 305.50000000000006 1.0000000180025095e-35 315.50000000000006 1.0000000180025095e-35 284.50000000000006 1.0000000180025095e-35 460.50000000000006
decision_type=2 2 2 2 2 2 2 2 2 2 2 2 2 2 2 2 2 2 2 2 2 2 2 2 2 2 2 2 2 2
left_child=28 2 9 5 6 7 10 15 16 -2 -3 17 20 21 23 -4 -5 25 -7 -8 -11 -9 -17 -12 -20 -6 -10 -22 -1 -13
right_child=1 4 3 8 11 18 19 13 26 12 14 29 -14 -15 -16 22 -18 -19 24 -21 27 -23 -24 -25 -26 -27 -28 -29 -30 -31
leaf_value=-1.9719893778231641 -2.5199243521195589 1.1115155557345553 -2.8300436552514672 2.5914390690857703 3.5135491364661373 2.4363297811435216 5.8741970765206357 0.83740850211444673 6.8113740612503895 -2.6760894909515063 0.90188710507699743 8.6404396707062698 3.1995433144789311 5.1738254223163764 6.9399341066639453 1.5950461300542713 5.7570433098210199 9.7429038934339758 4.7010835884492286 9.8317833850889045 -1.7330483261630247 4.3436438185785056 -1.5712352851857958 4.4580216568241475 8.4818455558802608 7.0316007215244403 10.936401545660416 1.7045318935843796 -1.4200196468867508 13.176368138238828
leaf_count=333253 19148 18465 10524 16328 6803 9747 17461 21410 12788 8191 7131 4463 11999 11031 10866 18883 18384 7411 12123 5879 6253 7014 9525 16248 6083 14572 4339 15519 332997 5162
internal_value=0 33.8587 22.3319 31.9814 55.9422 20.9865 44.0722 11.5883 54.5357 -2.64509 33.1624 79.4435 7.64676 26.7311 45.0503 -3.75787 42.6799 68.9821 47.3413 68.7105 -2.10392 17.0262 5.33415 33.7334 59.6431 59.1191 78.5642 7.17246 -16.9611 110.731
internal_count=1000000 333750 219289 158179 114461 106340 76050 78387 51839 61110 52710 38411 41962 39455 34245 38932 34712 28786 27953 23340 29963 28424 28408 23379 18206 21375 17127 21772 666250 9625
shrinkage=0.1


Tree=24
num_leaves=31
num_cat=0
split_feature=7 23 5 13 12 22 18 14 19 22 3 14 15 15 15 16 20 21 20 20 13 19 17 20 16 14 22 21 15 3
split_gain=4.65167e+08 7.79257e+07 5.73835e+07 4.05642e+07 2.92528e+07 2.27083e+07 1.92894e+07 1.88337e+07 1.6279e+07 1.34601e+07 1.28579e+07 1.19693e+07 1.11202e+07 9.93024e+06 9.61342e+06 9.49685e+06 8.33821e+06 8.13494e+06 7.04356e+06 6.73352e+06 6.53244e+06 6.15736e+06 5.8015e+06 5.6332e+06 5.51094e+06 5.11848e+06 4.98117e+06 4.87032e+06 4.83633e+06 4.80678e+06
threshold=1.0000000180025095e-35 296.50000000000006 1.0000000180025095e-35 1.0000000180025095e-35 1.0000000180025095e-35 736.50000000000011 537.50000000000011 275.50000000000006 756.50000000000011 720.50000000000011 1.0000000180025095e-35 291.50000000000006 677.50000000000011 653.50000000000011 440.50000000000006 310.50000000000006 728.50000000000011 288.50000000000006 776.50000000000011 269.50000000000006 1.0000000180025095e-35 612.50000000000011 269.50000000000006 772.50000000000011 410.50000000000006 262.50000000000006 660.50000000000011 759.50000000000011 701.50000000000011 1.0000000180025095e-35
decision_type=2 2 2 2 2 2 2 2 2 2 2 2 2 2 2 2 2 2 2 2 2 2 2 2 2 2 2 2 2 2
left_child=-1 5 3 4 7 8 13 -3 11 15 17 -2 18 21 -8 -9 22 -5 25 -17 28 -4 -13 -19 -16 -6 -12 -21 -7 -11
right_child=1 2 6 10 12 20 14 9 -10 29 26 16 -14 -15 24 19 -18 23 -20 27 -22 -23 -24 -25 -26 -27 -28 -29 -30 -31
leaf_value=-1.5264995414443139 -3.3538727339596854 0.57617403388292943 -1.9536517126557253 4.2971272842368142 1.7958811142141788 1.2839520720646556 1.6893995288626784 0.83027837230578561 2.4202605993842519 5.5271966760240527 9.4946588930511382 -3.3551197007613589 8.9191192828955224 2.4782733315300765 2.9917634999688723 1.5829171080862938 2.2567059248067447 7.0732935716356442 8.3713647575100492 4.2002082523072408 5.9812672162531157 1.1199267123997805 -0.14212690887863824 10.996029539759455 6.3488553102602516 5.3729219662437382 14.309996650573064 7.7982850591052939 4.7137353613508735 9.5493682634310897
leaf_count=666250 16002 21417 16676 8537 5434 13572 15996 12688 17915 11705 6430 7681 12479 14583 8295 7651 10799 16195 5811 15889 6514 10700 20942 4730 11912 15162 3226 4929 5898 3982
internal_value=0 30.4728 40.4189 51.484 42.1737 6.99765 18.297 31.0348 -2.00257 40.5569 79.3656 -10.473 64.5916 3.70475 35.2092 31.0568 -1.11028 68.9864 52.9667 41.1977 32.4005 -7.52333 -10.0434 79.6001 49.7076 44.2916 111.034 50.5211 23.2293 65.4819
internal_count=1000000 333750 234427 156265 117147 99323 78162 78261 73339 56844 39118 55424 38886 41959 36203 41157 39422 29462 26407 28469 25984 27376 28623 20925 20207 20596 9656 20818 19470 15687
shrinkage=0.1


Tree=25
num_leaves=31
num_cat=0
split_feature=7 21 16 20 4 3 19 22 15 13 18 16 12 17 17 19 14 22 19 18 18 17 20 11 16 22 4 11 11 19
split_gain=3.76786e+08 7.43759e+07 5.4921e+07 3.39163e+07 2.54865e+07 2.19797e+07 2.07346e+07 1.61895e+07 1.54004e+07 1.38987e+07 1.18848e+07 1.1627e+07 1.01859e+07 9.76824e+06 9.40219e+06 8.11233e+06 8.10857e+06 7.70559e+06 7.1131e+06 6.69295e+06 6.37948e+06 5.63481e+06 5.59236e+06 5.5062e+06 5.09366e+06 4.94983e+06 4.92643e+06 4.66486e+06 4.605e+06 4.36757e+06
threshold=1.0000000180025095e-35 280.50000000000006 651.50000000000011 285.50000000000006 1.0000000180025095e-35 1.0000000180025095e-35 259.50000000000006 288.50000000000006 265.50000000000006 1.0000000180025095e-35 703.50000000000011 319.50000000000006 1.0000000180025095e-35 729.50000000000011 286.50000000000006 716.50000000000011 344.50000000000006 297.50000000000006 317.50000000000006 273.50000000000006 634.50000000000011 741.50000000000011 768.50000000000011 1.0000000180025095e-35 707.50000000000011 268.50000000000006 1.0000000180025095e-35 1.0000000180025095e-35 1.0000000180025095e-35 808.50000000000011
decision_type=2 2 2 2 2 2 2 2 2 2 2 2 2 2 2 2 2 2 2 2 2 2 2 2 2 2 2 2 2 2
left_child=28 6 3 14 7 9 24 27 -8 12 15 -10 20 19 -3 23 -13 -7 -16 -6 -4 -18 -19 -9 -2 -21 -20 -5 -1 -11
right_child=1 2 5 4 13 17 8 10 11 29 -12 16 -14 -15 18 -17 21 22 26 25 -22 -23 -24 -25 -26 -27 -28 -29 -30 -31
leaf_value=-1.2218163776751876 -3.0905380468293302 -2.038008372780904 1.8207372853470247 0.97837805031094094 2.1186549265135999 5.5999002829898004 -1.227354837600231 2.3114533616888635 -0.080279463173441451 6.6065749732067154 5.695210663889311 1.0529293587740287 6.0343225129584015 8.3185969601307601 -0.98713730793996501 4.7428695363198461 3.3327152901461616 8.7382676450592172 1.1179237569299347 2.9963568847254134 4.794164934000011 6.9088070341482748 13.371515847418085 -1.0030753783269195 0.091166912357784152 6.5900463901998725 4.3005809721673023 -2.4219771139559398 -1.8284758200860041 10.92508518756275
leaf_count=499283 17149 12804 19769 16150 7484 6205 18621 19902 16249 12592 15640 12029 15636 10009 10370 10649 17039 11363 14350 5223 11363 5943 3380 6699 7121 14399 7357 5378 166967 2877
internal_value=0 27.4255 36.7834 25.7423 35.0834 57.5441 3.61137 24.4078 12.357 48.1136 33.8179 21.3044 39.5191 56.4885 2.52898 24.1046 31.5646 85.5624 11.6735 46.6303 29.0602 42.5747 98.0049 14.7675 -21.57 56.3348 21.966 1.28921 -13.7385 74.0975
internal_count=1000000 333750 239599 156414 111533 83185 94151 74418 69881 62237 52890 51260 46768 37115 44881 37250 35011 20948 32077 27106 31132 22982 14743 26601 24270 19622 21707 21528 666250 15469
shrinkage=0.1


Tree=26
num_leaves=31
num_cat=0
split_feature=7 15 18 22 19 19 3 17 21 14 14 4 14 13 11 23 14 17 21 12 4 20 23 22 23 21 3 23 14 20
split_gain=3.05196e+08 7.03444e+07 4.7884e+07 3.53824e+07 2.43555e+07 2.3039e+07 1.78042e+07 1.65347e+07 1.29731e+07 1.18271e+07 1.16669e+07 1.08058e+07 9.48195e+06 9.00778e+06 8.53448e+06 8.31028e+06 7.41689e+06 7.2341e+06 7.17412e+06 6.60792e+06 6.56206e+06 6.02715e+06 5.58146e+06 5.27647e+06 5.04021e+06 4.59051e+06 4.54013e+06 4.27433e+06 4.20928e+06 4.16138e+06
threshold=1.0000000180025095e-35 713.50000000000011 277.50000000000006 712.50000000000011 712.50000000000011 339.50000000000006 1.0000000180025095e-35 733.50000000000011 743.50000000000011 283.50000000000006 275.50000000000006 1.0000000180025095e-35 246.50000000000003 1.0000000180025095e-35 1.0000000180025095e-35 595.50000000000011 336.50000000000006 256.50000000000006 619.50000000000011 1.0000000180025095e-35 1.0000000180025095e-35 405.50000000000006 707.50000000000011 636.50000000000011 663.50000000000011 723.50000000000011 1.0000000180025095e-35 735.50000000000011 712.50000000000011 434.50000000000006
decision_type=2 2 2 2 2 2 2 2 2 2 2 2 2 2 2 2 2 2 2 2 2 2 2 2 2 2 2 2 2 2
left_child=26 2 8 4 7 16 11 9 12 -4 -5 18 -2 19 20 25 -3 -14 29 -12 27 -8 -19 -18 -9 -6 -1 -11 -13 -7
right_child=1 5 3 10 15 6 21 24 -10 14 13 28 17 -15 -16 -17 23 22 -20 -21 -22 -23 -24 -25 -26 -27 -28 -29 -30 -31
leaf_value=-1.3872089982040618 -3.9880002790567488 0.51128566129235531 -2.373965226740149 2.2101343357319165 1.5706208594429445 0.98814647995720439 6.4367202421452152 1.855475460348416 1.6405452323215461 -0.35571318099932303 3.6121028394629087 5.9997742232696698 -3.1464028789515583 8.4099551985667915 -1.6919159397446046 5.5994268411174843 2.5077560669194878 -0.86135333407748949 5.7548738193064732 6.9498560461222425 3.3780421706382642 10.414995058780837 2.2838232621444758 5.7685943050303763 4.9625393822357591 4.888304197706578 -0.78441071373559579 2.7434570401030873 9.6024896110865097 3.934283778320935
leaf_count=499638 12186 11171 18048 13671 15331 8502 6449 15472 16934 16962 17719 11253 9495 8862 11684 14260 13711 19290 12030 8916 11560 9300 7975 7777 7880 5729 166612 6033 4556 10994
internal_value=0 24.683 15.475 24.2501 15.1838 47.573 58.7344 6.24915 -7.45202 -2.02931 46.9231 49.0441 -15.7061 56.4827 6.44467 37.3534 26.0136 -7.69236 38.3448 47.2941 14.3446 87.8595 0.586094 36.8793 29.0394 24.7314 -12.3646 4.57389 70.3804 26.495
internal_count=1000000 333750 238007 172127 122959 95743 63084 87639 65880 64287 49168 47335 48946 35497 46239 35320 32659 36760 31526 26635 34555 15749 27265 21488 23352 21060 666250 22995 15809 19496
shrinkage=0.1


Tree=27
num_leaves=31
num_cat=0
split_feature=7 20 16 11 21 17 17 3 22 15 14 13 23 5 22 12 23 19 22 23 4 18 22 14 15 16 5 19 8 15
split_gain=2.47209e+08 6.70572e+07 4.66869e+07 3.5141e+07 2.73737e+07 2.0582e+07 1.91564e+07 1.56405e+07 1.35514e+07 1.16309e+07 1.07964e+07 1.03297e+07 8.99004e+06 8.8172e+06 8.77936e+06 7.39604e+06 7.35851e+06 6.6192e+06 6.2804e+06 6.27257e+06 5.75304e+06 5.72746e+06 5.61426e+06 4.91318e+06 4.82033e+06 4.73623e+06 4.2652e+06 4.15496e+06 4.0102e+06 3.99941e+06
threshold=1.0000000180025095e-35 732.50000000000011 268.50000000000006 1.0000000180025095e-35 727.50000000000011 256.50000000000006 737.50000000000011 1.0000000180025095e-35 231.50000000000003 273.50000000000006 728.50000000000011 1.0000000180025095e-35 707.50000000000011 1.0000000180025095e-35 268.50000000000006 1.0000000180025095e-35 227.50000000000003 247.50000000000003 572.50000000000011 454.50000000000006 1.0000000180025095e-35 747.50000000000011 700.50000000000011 752.50000000000011 257.50000000000006 543.50000000000011 1.0000000180025095e-35 784.50000000000011 1.0000000180025095e-35 249.50000000000003
decision_type=2 2 2 2 2 2 2 2 2 2 2 2 2 2 2 2 2 2 2 2 2 2 2 2 2 2 2 2 2 2
left_child=26 2 9 4 6 24 8 11 -4 -2 16 15 20 19 -11 25 -10 -16 -9 -5 -6 27 29 -19 -3 -7 28 -18 -1 -8
right_child=1 5 3 13 12 7 22 18 10 14 -12 -13 -14 -15 17 -17 21 23 -20 -21 -22 -23 -24 -25 -26 -27 -28 -29 -30 -31
leaf_value=-0.63254187369831993 -3.0938188101430661 -0.44514859019302194 -1.1952731726563395 -0.81343804531506392 3.2899498467504387 1.4956994401975172 0.94355035555788513 6.4618559801551179 -1.2566555114593654 -2.336841980396875 4.3398881607355611 7.0815473835956269 7.8125870763515115 -2.2090904992384663 -1.6548046451117937 5.7502422327535756 0.45491611482481925 0.73248391210947217 10.411341492391847 2.0984458631635152 6.4645254852668961 4.2825523048864351 6.7532362994430599 3.9124912269005621 2.8513806308231842 4.2605970502131338 -1.4701220094985574 3.6833847019324142 -1.2337849962871599 4.3823822079080088
leaf_count=221511 17895 5987 16655 13627 17141 13572 4510 9524 9336 12842 15088 12376 10563 14941 8752 12342 18281 19489 6975 16183 8559 7838 7664 6472 17119 11399 222512 5098 222227 13522
internal_value=0 22.2147 13.6478 22.0042 30.0935 45.6678 21.4071 54.6381 13.0715 -9.20694 20.562 45.7801 53.5662 -2.26399 -1.02945 37.4764 12.0654 7.2348 81.3151 7.67341 43.4719 19.432 44.8594 15.2525 19.9722 27.5785 -11.1282 11.5891 -9.33649 35.2229
internal_count=1000000 333750 244456 179006 134255 89294 97992 66188 72296 65450 55641 49689 36263 44751 47555 37313 40553 34713 16499 29810 25700 31217 25696 25961 23106 24971 666250 23379 443738 18032
shrinkage=0.1


Tree=28
num_leaves=31
num_cat=0
split_feature=7 18 19 16 23 17 17 5 15 15 14 14 23 21 14 4 20 21 3 5 13 20 22 3 22 21 0 21 22 23
split_gain=2.00239e+08 6.15881e+07 4.51326e+07 3.4297e+07 2.44702e+07 1.80099e+07 1.71964e+07 1.28018e+07 1.16588e+07 1.15736e+07 1.07834e+07 9.20591e+06 9.03305e+06 8.99931e+06 7.96888e+06 7.12427e+06 6.82114e+06 6.32807e+06 6.09462e+06 5.44809e+06 5.34356e+06 4.96703e+06 4.82091e+06 4.62566e+06 4.47629e+06 4.38869e+06 4.37933e+06 4.10079e+06 3.99989e+06 3.9777e+06
threshold=1.0000000180025095e-35 747.50000000000011 259.50000000000006 739.50000000000011 715.50000000000011 709.50000000000011 265.50000000000006 1.0000000180025095e-35 216.50000000000003 265.50000000000006 728.50000000000011 760.50000000000011 235.50000000000003 571.50000000000011 360.50000000000006 1.0000000180025095e-35 210.50000000000003 242.50000000000003 1.0000000180025095e-35 1.0000000180025095e-35 1.0000000180025095e-35 230.50000000000003 235.50000000000003 1.0000000180025095e-35 323.50000000000006 342.50000000000006 1.0000000180025095e-35 216.50000000000003 260.50000000000006 779.50000000000011
decision_type=2 2 2 2 2 2 2 2 2 2 2 2 2 2 2 2 2 2 2 2 2 2 2 2 2 2 2 2 2 2
left_child=-1 2 8 4 6 9 27 11 -2 -3 15 17 -10 21 -6 24 -14 -8 26 28 -16 -11 -19 -15 -5 -9 -7 -4 -18 -23
right_child=1 5 3 10 14 18 7 25 12 13 -12 -13 16 23 20 -17 19 22 -20 -21 -22 29 -24 -25 -26 -27 -28 -29 -30 -31
leaf_value=-1.0015363390416718 -3.618640145176153 1.0883037127037456 -4.1961784184145188 0.39920258481466075 1.4169190382805095 4.6331651022849485 -1.0232044595426371 -2.5905950321001239 -2.746917966864991 0.40514001976208641 6.7359401772894021 4.5525722555623753 -2.1686194599668109 4.9998632366288138 3.5553554156017384 5.4058662226812126 -0.32979311870290529 -0.33238969089286563 9.372316398887671 -0.83422150037805953 6.9558531047863568 3.0010773026979081 2.7926101475670873 8.6359390383628334 3.3418044007531487 0.25441809298494344 7.9308648685479817 -1.1758884950572364 2.8404294108522614 6.4597126436722094
leaf_count=666250 13952 15790 5774 7676 14099 12197 8781 8324 12053 5683 13190 11578 8230 14076 18783 11642 5398 6448 6108 10044 6129 14955 21061 4656 15832 15553 6012 20301 15149 4276
internal_value=0 19.9932 12.1305 20.0805 11.9914 43.4628 3.54623 11.5394 -10.578 34.0831 42.9776 20.9737 -3.55502 42.4763 33.1675 33.8284 3.86976 13.1406 66.3886 10.7452 43.9197 30.0254 20.6012 59.0364 23.8097 -7.3741 57.2195 -18.447 20.0757 37.701
internal_count=1000000 333750 249997 185171 136831 83753 97820 71745 64826 59436 48340 47868 50874 43646 39011 35150 38821 36290 24317 30591 24912 24914 27509 18732 23508 23877 18209 26075 20547 19231
shrinkage=0.1


Tree=29
num_leaves=31
num_cat=0
split_feature=7 20 13 12 23 22 3 17 3 21 0 0 22 14 15 14 19 19 14 18 22 21 5 15 4 23 21 22 11 11
split_gain=1.62194e+08 5.78449e+07 4.47643e+07 3.31163e+07 2.11173e+07 1.44654e+07 1.40121e+07 1.28547e+07 1.15784e+07 1.10498e+07 9.78042e+06 8.90411e+06 8.02428e+06 6.93613e+06 6.79889e+06 6.51932e+06 5.93998e+06 5.62978e+06 5.53542e+06 5.47201e+06 4.76789e+06 4.67654e+06 4.20778e+06 4.08769e+06 3.96143e+06 3.91757e+06 3.91556e+06 3.90903e+06 3.86162e+06 3.73012e+06
threshold=1.0000000180025095e-35 251.50000000000003 1.0000000180025095e-35 1.0000000180025095e-35 409.50000000000006 264.50000000000006 1.0000000180025095e-35 525.50000000000011 1.0000000180025095e-35 691.50000000000011 1.0000000180025095e-35 1.0000000180025095e-35 708.50000000000011 204.50000000000003 472.50000000000006 437.50000000000006 696.50000000000011 696.50000000000011 511.50000000000006 224.50000000000003 748.50000000000011 779.50000000000011 1.0000000180025095e-35 757.50000000000011 1.0000000180025095e-35 389.50000000000006 579.50000000000011 704.50000000000011 1.0000000180025095e-35 1.0000000180025095e-35
decision_type=2 2 2 2 2 2 2 2 2 2 2 2 2 2 2 2 2 2 2 2 2 2 2 2 2 2 2 2 2 2
left_child=29 5 3 4 12 -2 10 15 11 13 16 20 19 -7 -9 -6 23 28 -8 -3 -5 -10 -21 -4 -12 -11 -17 -16 -15 -1
right_child=1 2 6 8 7 9 18 14 21 25 24 -13 -14 17 27 26 -18 -19 -20 22 -22 -23 -24 -25 -26 -27 -28 -29 -30 -31
leaf_value=-0.76455170781522197 -2.6310619744648016 -3.7689800907101922 1.3043816466589382 1.1841192909444431 -0.77368133847276632 -3.0579791460691417 5.6452581958950869 1.8595220873356739 5.1051863008717513 0.52722950418798975 4.9627596664201725 4.8490536083378171 1.2569972060910812 -0.027916827447412404 3.7186922514973624 0.69311542721598463 5.0829885645539461 2.0263955570210039 9.4405874844970388 0.02644572850658294 4.0330911507530649 9.2491609188981556 -2.5553891989585402 4.4958771769875057 8.3599503992880511 3.4821567787094048 3.4106703865103527 6.9196771717631878 -2.9752183736046431 -1.3105497342109107
leaf_count=499283 22550 8201 16300 23052 17038 8828 7822 16439 12126 7311 10473 15461 14934 17812 13004 12577 9565 10403 7554 18892 7883 3512 9480 5324 5106 11614 9166 5399 5924 166967
internal_value=0 17.9939 25.6557 17.9345 8.56873 -4.62706 48.9104 19.4346 36.8264 3.27323 40.3005 28.8948 -6.96272 -5.59446 33.3752 6.90996 30.0799 0.8665 75.0985 -14.9386 19.1011 60.3584 -8.36229 20.9015 60.7619 23.4063 18.3873 46.5778 -7.63501 -9.01383
internal_count=1000000 333750 249308 187164 125130 84442 62144 73623 62034 61892 46768 46396 51507 42967 34842 38781 31189 34139 15376 36573 30935 15638 28372 21624 15579 18925 21743 18403 23736 666250
shrinkage=0.1


Tree=30
num_leaves=31
num_cat=0
split_feature=7 4 15 19 22 17 19 14 18 14 22 18 14 17 3 23 21 3 14 21 21 15 0 16 21 21 0 21 18 3
split_gain=1.31377e+08 5.5569e+07 3.55115e+07 2.6086e+07 2.12308e+07 1.74637e+07 1.55013e+07 1.19112e+07 1.10977e+07 9.48701e+06 9.18182e+06 8.94409e+06 8.43842e+06 7.23328e+06 6.73995e+06 6.69278e+06 5.97348e+06 5.61069e+06 5.35669e+06 5.35317e+06 5.15773e+06 4.92583e+06 4.76859e+06 4.59361e+06 4.31951e+06 4.28249e+06 3.83584e+06 3.68543e+06 3.68159e+06 3.67746e+06
threshold=1.0000000180025095e-35 1.0000000180025095e-35 277.50000000000006 676.50000000000011 748.50000000000011 327.50000000000006 728.50000000000011 760.50000000000011 224.50000000000003 511.50000000000006 231.50000000000003 228.50000000000003 736.50000000000011 290.50000000000006 1.0000000180025095e-35 247.50000000000003 759.50000000000011 1.0000000180025095e-35 232.50000000000003 342.50000000000006 342.50000000000006 265.50000000000006 1.0000000180025095e-35 196.50000000000003 707.50000000000011 559.50000000000011 1.0000000180025095e-35 691.50000000000011 290.50000000000006 1.0000000180025095e-35
decision_type=2 2 2 2 2 2 2 2 2 2 2 2 2 2 2 2 2 2 2 2 2 2 2 2 2 2 2 2 2 2
left_child=29 2 10 5 6 19 8 11 -3 24 -2 -7 16 -12 22 -13 23 26 -15 -4 -17 -8 -6 -10 -5 -20 -11 -23 -21 -1
right_child=1 4 3 9 14 7 21 -9 12 17 13 15 -14 18 -16 20 -18 -19 25 28 -22 27 -24 -25 -26 -27 -28 -29 -30 -31
leaf_value=-0.94691340447195038 -3.5518081386669182 -0.69242455284608551 -2.9149879634212135 1.1982860558140711 3.8932951844423154 -1.5705747203018601 2.4118192278914887 3.7525824546027828 -1.6292443046248763 2.8568099708015029 -2.578083418395849 -0.71231351918301966 4.788794440427619 -2.1551082529956771 8.577246218811732 0.43328704136388718 4.0887637966806611 7.3009961065195803 -0.31450737212219221 -2.2914918311523258 3.086091687935081 4.7832799844034852 7.1200732626422116 1.6715211110474115 4.0086492290747877 2.2775180186417159 5.8678016546331087 8.0113513890500272 0.47677291772147429 -0.40439876340684383
leaf_count=499638 14270 13623 12113 18804 13914 12584 5919 17705 5256 12659 13920 10680 12390 7859 6830 11173 8322 6327 14487 6761 21303 11569 6827 21313 7712 11382 6355 5094 16599 166612
internal_value=0 16.1945 7.08226 14.9189 34.4665 6.12974 26.5208 14.9298 18.2236 33.3793 -13.2662 7.75251 25.4694 -6.60206 58.5262 14.5928 17.5084 47.215 1.31328 -12.0903 21.7342 48.8987 49.554 10.1855 20.1566 8.25948 38.6317 57.7012 -3.24436 -8.11244
internal_count=1000000 333750 222693 160775 111057 108918 83486 73445 60904 51857 61918 55740 47281 47648 27571 43156 34891 25341 33728 35473 32476 22582 20741 26569 26516 25869 19014 16663 23360 666250
shrinkage=0.1


Tree=31
num_leaves=31
num_cat=0
split_feature=7 16 23 14 17 23 19 18 15 20 13 18 21 19 5 3 14 15 12 11 22 20 21 22 18 19 20 5 8 11
split_gain=1.06415e+08 5.24787e+07 3.56107e+07 2.65383e+07 2.04901e+07 1.74204e+07 1.54432e+07 1.19189e+07 1.1485e+07 9.90367e+06 9.26666e+06 8.25069e+06 6.43042e+06 6.27668e+06 6.21138e+06 6.15683e+06 5.86701e+06 5.41281e+06 5.11012e+06 4.96969e+06 4.51063e+06 4.37059e+06 4.04119e+06 4.01321e+06 4.00138e+06 3.80582e+06 3.51912e+06 3.4954e+06 3.47635e+06 3.45827e+06
threshold=1.0000000180025095e-35 719.50000000000011 763.50000000000011 246.50000000000003 769.50000000000011 711.50000000000011 239.50000000000003 212.50000000000003 753.50000000000011 648.50000000000011 1.0000000180025095e-35 743.50000000000011 229.50000000000003 200.50000000000003 1.0000000180025095e-35 1.0000000180025095e-35 303.50000000000006 725.50000000000011 1.0000000180025095e-35 1.0000000180025095e-35 776.50000000000011 343.50000000000006 687.50000000000011 760.50000000000011 290.50000000000006 608.50000000000011 255.50000000000003 1.0000000180025095e-35 1.0000000180025095e-35 1.0000000180025095e-35
decision_type=2 2 2 2 2 2 2 2 2 2 2 2 2 2 2 2 2 2 2 2 2 2 2 2 2 2 2 2 2 2
left_child=28 2 3 13 6 8 29 -8 11 14 12 16 -9 -2 20 23 -3 25 26 24 -4 -18 -11 -7 -15 -6 -14 -10 -1 -5
right_child=1 5 9 4 17 15 7 10 27 22 -12 -13 18 19 -16 -17 21 -19 -20 -21 -22 -23 -24 -25 -26 -27 -28 -29 -30 -31
leaf_value=-0.50160745806678664 -4.4485790813290391 -0.80653258247702309 2.0958439582346053 -1.4472843167149332 1.0772104512682319 3.9558505752409512 -1.6248794505147111 -1.4953640969911444 5.9142802057267154 3.7046705951590604 3.424250377281167 4.0377972173458447 -1.6291089810133874 -2.7534727592162502 0.074384542029965403 8.2173261460189675 0.14632984334167604 5.0311897115621935 2.9389983693636741 -3.5540514451441738 5.3635773556137663 2.8712893326787166 6.7891392071815702 7.2837581362153232 -0.066520544476006013 3.7081175320700965 1.1348232870822819 2.8443778858003448 -0.9584569974452235 -4.123047623907488
leaf_count=332997 9139 11345 19234 19110 14030 15482 17355 10924 10987 13717 15878 12742 6181 7776 12466 6779 9041 8734 12210 8972 5413 16867 6153 4731 19294 9042 18085 5599 333253 6464
internal_value=0 14.5751 6.74814 -0.0429841 6.84352 34.6647 0.175605 6.96663 25.9771 28.5809 13.3338 18.4123 6.32987 -21.079 18.9345 56.0941 10.8992 29.1091 12.7039 -15.1438 28.1351 19.2037 46.5982 47.3477 -8.38362 21.0827 4.30799 48.7796 -7.3012 -21.236
internal_count=1000000 333750 240177 183194 138013 93573 106207 80633 66581 56983 63278 49995 47400 45181 37113 26992 37253 31806 36476 36042 24647 25908 19870 20213 27070 23072 24266 16586 666250 25574
shrinkage=0.1


Tree=32
num_leaves=31
num_cat=0
split_feature=7 20 17 21 16 19 22 11 15 3 4 22 0 23 3 15 23 14 11 18 23 3 0 16 23 13 0 22 5 18
split_gain=8.61965e+07 4.84674e+07 3.69845e+07 2.86518e+07 2.12204e+07 1.6072e+07 1.35072e+07 1.13201e+07 9.03217e+06 8.75333e+06 8.04835e+06 7.95492e+06 6.89949e+06 6.61914e+06 6.06257e+06 5.96147e+06 5.18123e+06 4.96658e+06 4.96211e+06 4.64149e+06 4.30451e+06 4.13884e+06 3.96225e+06 3.91125e+06 3.74068e+06 3.71734e+06 3.52558e+06 3.50172e+06 3.4566e+06 3.223e+06
threshold=1.0000000180025095e-35 768.50000000000011 231.50000000000003 751.50000000000011 232.50000000000003 728.50000000000011 620.50000000000011 1.0000000180025095e-35 733.50000000000011 1.0000000180025095e-35 1.0000000180025095e-35 252.50000000000003 1.0000000180025095e-35 219.50000000000003 1.0000000180025095e-35 753.50000000000011 247.50000000000003 780.50000000000011 1.0000000180025095e-35 759.50000000000011 235.50000000000003 1.0000000180025095e-35 1.0000000180025095e-35 281.50000000000006 518.50000000000011 1.0000000180025095e-35 1.0000000180025095e-35 207.50000000000003 1.0000000180025095e-35 659.50000000000011
decision_type=2 2 2 2 2 2 2 2 2 2 2 2 2 2 2 2 2 2 2 2 2 2 2 2 2 2 2 2 2 2
left_child=28 2 11 4 19 7 10 8 13 12 18 -2 25 -6 22 20 -7 27 23 -4 -13 26 -8 -3 -11 -5 -18 -15 -1 -22
right_child=1 6 3 9 5 16 14 -9 -10 24 -12 15 -14 17 -16 -17 21 -19 -20 -21 29 -23 -24 -25 -26 -27 -28 -29 -30 -31
leaf_value=-0.49581350290862702 -3.5208286076301101 0.25101210607761354 -2.2051223342978554 0.94404647265562736 -1.7648808142686088 0.98873838443093409 3.4421094707759154 -1.4707971364068964 3.2123726840417648 4.0462479528421822 4.3145145543631243 -3.5813867377580486 4.5816876771892279 -1.7024825497904588 7.7226503454376134 1.167957721511051 2.1904931565515269 3.3326105881394961 -0.57943371380857867 0.53017942132288487 -1.7021643459623066 6.2941136992812865 6.2999784247299004 3.0930668761665219 7.5447879430644154 3.7975229344148049 5.2041152174213927 1.077372870868236 -0.97876478972074032 0.6522352032415264
leaf_count=443738 15025 6758 26213 18104 10077 7769 14762 20733 16751 6344 15910 7783 12179 5712 7211 10937 11551 7997 8085 8127 17047 5769 7226 17082 5897 6105 5847 21925 222512 8824
internal_value=0 13.1175 6.51626 13.1174 6.21727 12.775 35.1164 5.53872 12.2592 34.1846 24.7708 -15.3083 26.403 4.97976 52.0648 -8.60296 32.2353 11.3789 15.6139 -15.5778 -15.1945 39.7296 43.813 22.8742 57.3164 16.6363 32.0329 5.02834 -6.57108 -8.99133
internal_count=1000000 333750 256716 197100 148471 114131 77034 83195 62462 48629 47835 59616 36388 45711 29199 44591 30936 35634 31925 34340 33654 23167 21988 23840 12241 24209 17398 27637 666250 25871
shrinkage=0.1


Tree=33
num_leaves=31
num_cat=0
split_feature=7 21 14 15 17 16 18 5 5 14 3 3 13 5 18 0 0 22 23 19 22 23 15 22 18 18 18 11 9 22
split_gain=6.98191e+07 4.63031e+07 3.65544e+07 2.7206e+07 2.0624e+07 1.40194e+07 1.09198e+07 1.07038e+07 1.00379e+07 8.30245e+06 8.19148e+06 7.39014e+06 7.11607e+06 6.64586e+06 6.43606e+06 6.13615e+06 5.43271e+06 5.01429e+06 4.79986e+06 4.70297e+06 3.768e+06 3.58912e+06 3.43917e+06 3.43017e+06 3.21198e+06 3.07866e+06 3.06133e+06 3.02124e+06 3.10083e+06 2.95654e+06
threshold=1.0000000180025095e-35 242.50000000000003 772.50000000000011 253.50000000000003 721.50000000000011 252.50000000000003 224.50000000000003 1.0000000180025095e-35 1.0000000180025095e-35 241.50000000000003 1.0000000180025095e-35 1.0000000180025095e-35 1.0000000180025095e-35 1.0000000180025095e-35 244.50000000000003 1.0000000180025095e-35 1.0000000180025095e-35 620.50000000000011 223.50000000000003 744.50000000000011 692.50000000000011 255.50000000000003 203.50000000000003 496.50000000000006 399.50000000000006 783.50000000000011 727.50000000000011 1.0000000180025095e-35 1.0000000180025095e-35 740.50000000000011
decision_type=2 2 2 2 2 2 2 2 2 2 2 2 2 2 2 2 2 2 2 2 2 2 2 2 2 2 2 2 2 2
left_child=27 6 3 14 5 21 -2 11 10 -8 16 15 17 19 -3 25 26 -6 -16 22 -20 -5 -11 -9 -10 -7 -4 28 -1 -12
right_child=1 2 8 4 12 7 9 23 24 13 29 -13 -14 -15 18 -17 -18 -19 20 -21 -22 -23 -24 -25 -26 -27 -28 -29 -30 -31
leaf_value=-0.71729813455910829 -3.0341906612982279 -2.8454779635899725 2.4124233018693704 -2.8196386957321971 2.0272957772197162 0.49318763789312059 -2.299248431368587 -0.98933676997517872 0.61616540183699076 -1.8953133958622925 6.4885838291989018 4.7030647394547502 6.0794741223198905 -1.282387411858896 -2.3045948239064895 3.7202813146260176 6.1062587793120455 4.6731092998103287 -0.33080646712053768 3.276833274968368 2.1506402160460825 -0.15887160506699893 1.1043811135452943 1.3080089998193267 3.2570302350662619 3.1349831042581342 5.2574935538807042 -0.95963833340841109 -0.21887817353230782 10.488492474879955
leaf_count=249806 18392 12031 13970 6819 18909 20352 15239 12995 7687 4786 7158 13060 10218 16021 8301 13098 9512 11531 20135 8207 8791 19761 18977 13002 11489 5632 5186 166967 249477 2491
internal_value=0 11.8058 18.5075 11.9633 18.8453 11.4237 -8.89569 18.172 40.662 -2.65753 50.0096 26.4362 37.9605 3.79961 -8.34766 19.5542 41.527 30.2956 -1.84945 12.1301 4.23339 -8.41481 5.00226 1.59645 21.984 10.6579 31.8265 -5.91397 -4.68252 75.2121
internal_count=1000000 333750 252128 194635 145377 104719 81622 78139 57493 63230 38317 52142 40658 47991 49258 39082 28668 30440 37227 31970 28926 26580 23763 25997 19176 25984 19156 666250 499283 9649
shrinkage=0.1


Tree=34
num_leaves=31
num_cat=0
split_feature=7 22 15 20 19 4 16 13 23 21 11 12 23 19 3 11 18 14 10 16 20 11 18 0 14 3 3 3 16 23
split_gain=5.65535e+07 4.36509e+07 3.48466e+07 2.61795e+07 2.08862e+07 1.63641e+07 1.06151e+07 9.9199e+06 9.60561e+06 7.59234e+06 7.35112e+06 7.06289e+06 6.80612e+06 5.65045e+06 5.4724e+06 5.42464e+06 5.11014e+06 4.40925e+06 4.38916e+06 4.37359e+06 4.20219e+06 3.70434e+06 3.65814e+06 3.63542e+06 3.45377e+06 3.39296e+06 3.19588e+06 2.97931e+06 2.93331e+06 2.85414e+06
threshold=1.0000000180025095e-35 223.50000000000003 777.50000000000011 214.50000000000003 225.50000000000003 1.0000000180025095e-35 289.50000000000006 1.0000000180025095e-35 227.50000000000003 743.50000000000011 1.0000000180025095e-35 1.0000000180025095e-35 247.50000000000003 221.50000000000003 1.0000000180025095e-35 1.0000000180025095e-35 723.50000000000011 208.50000000000003 1.0000000180025095e-35 200.50000000000003 567.50000000000011 1.0000000180025095e-35 739.50000000000011 1.0000000180025095e-35 295.50000000000006 1.0000000180025095e-35 1.0000000180025095e-35 1.0000000180025095e-35 787.50000000000011 235.50000000000003
decision_type=2 2 2 2 2 2 2 2 2 2 2 2 2 2 2 2 2 2 2 2 2 2 2 2 2 2 2 2 2 2
left_child=27 8 3 16 19 6 29 11 -2 15 13 20 -7 -10 23 18 21 -15 26 -5 -4 28 -19 -14 -21 -9 -8 -1 -3 -6
right_child=1 2 7 4 5 12 9 25 10 -11 -12 -13 14 17 -16 -17 -18 22 -20 24 -22 -23 -24 -25 -26 -27 -28 -29 -30 -31
leaf_value=-0.65437125854508338 -3.1685587547666576 -1.7450575926582232 1.1274110050994206 -2.655692552397074 -2.3328922124496305 1.6653008080981628 2.2915928053874652 5.227906587067892 -1.9375461976612325 4.1279278075905905 -2.3994928597462688 4.8924422394206415 2.9879402823626777 -1.4006076260221563 6.9770828616122902 -0.42960763506143984 0.64937478720740549 0.71963494581589815 0.52062578265892434 -1.6177716029431666 3.562725182395964 -3.6818937864086752 3.4215796062238448 5.655346831987714 0.79906026580032519 8.765880801060101 5.1234532323002107 -0.1660612626247826 0.98577313139291278 0.27234770846788375
leaf_count=499638 16843 18618 16330 7313 5482 10119 16346 10755 9634 14916 14555 14453 15195 7123 7631 10801 11788 19866 10897 8386 12516 7799 6701 7698 20050 3624 5270 166612 4987 18054
internal_value=0 10.6252 16.7676 10.5598 16.5186 22.7289 14.5772 38.4385 -10.6677 21.8211 -4.55143 30.8811 39.1285 1.98076 46.5793 15.1203 -11.2599 8.08778 21.5705 -4.74602 21.8407 -17.924 14.0115 38.8488 0.863175 61.196 29.82 -5.32257 -11.6812 -3.34464
internal_count=1000000 333750 259028 201350 158158 122409 81766 57678 74722 58230 57879 43299 40643 43324 30524 43314 43192 33690 32513 35749 28846 31404 26567 22893 28436 14379 21616 666250 23605 23536
shrinkage=0.1


Tree=35
num_leaves=31
num_cat=0
split_feature=7 18 17 19 23 15 11 22 4 16 23 14 21 19 19 23 16 22 16 20 20 5 13 20 20 15 14 5 20 17
split_gain=4.58083e+07 4.09261e+07 3.20275e+07 1.72005e+07 1.58618e+07 1.28248e+07 1.03528e+07 9.6037e+06 9.38522e+06 8.14495e+06 7.37214e+06 6.72867e+06 6.26572e+06 6.11968e+06 5.96283e+06 4.85965e+06 4.80418e+06 4.74344e+06 3.97418e+06 3.89595e+06 3.86706e+06 3.61676e+06 3.59808e+06 3.54673e+06 3.0596e+06 2.84518e+06 2.80923e+06 2.80143e+06 2.74054e+06 2.47193e+06
threshold=1.0000000180025095e-35 244.50000000000003 581.50000000000011 784.50000000000011 675.50000000000011 212.50000000000003 1.0000000180025095e-35 788.50000000000011 1.0000000180025095e-35 779.50000000000011 197.50000000000003 527.50000000000011 791.50000000000011 208.50000000000003 656.50000000000011 819.50000000000011 200.50000000000003 768.50000000000011 759.50000000000011 478.50000000000006 438.50000000000006 1.0000000180025095e-35 1.0000000180025095e-35 450.50000000000006 579.50000000000011 520.50000000000011 437.50000000000006 1.0000000180025095e-35 188.50000000000003 143.50000000000003
decision_type=2 2 2 2 2 2 2 2 2 2 2 2 2 2 2 2 2 2 2 2 2 2 2 2 2 2 2 2 2 2
left_child=27 7 3 5 8 28 9 10 14 12 -2 24 15 -12 19 21 -15 23 25 -4 -18 29 -13 -5 -6 -10 -8 -1 -3 -7
right_child=1 2 4 17 11 6 26 -9 18 -11 13 22 -14 16 -16 -17 20 -19 -20 -21 -22 -23 -24 -25 -26 -27 -28 -29 -30 -31
leaf_value=-0.33382576848170842 -3.697367109120739 -4.1367186197852073 -0.72620190806872542 0.70153420565976499 2.2769196981603534 -1.4869354819238694 -2.4977708238751859 1.1141662725603136 1.7430927890660854 3.2970807516676213 -3.1341243477163121 5.3270804432456487 2.7946622416517837 -2.6226994386039602 2.7978966477150911 2.3668443856208694 -1.1454671233817231 4.9395499913497973 5.9781513094901397 1.5110825549344353 1.0491969945869541 -1.8689853748854823 8.8113435455903204 3.1278403023801302 4.919432895226957 4.2458631804643003 -0.26067995550172807 -0.76860444901494107 -1.4540708448236435 0.90917140000282548
leaf_count=443738 12817 4722 14881 11029 10622 5740 9911 17114 9345 14882 10802 12074 10823 8189 16428 7703 14302 7262 5738 16319 18304 11392 3928 13278 7458 8838 12945 222512 19676 17228
internal_value=0 9.56269 15.8585 6.2929 29.1333 0.618013 6.09688 -9.91455 20.6758 12.3041 -15.5089 46.8883 6.48851 -10.177 12.5591 0.967243 -4.57293 26.9694 36.8366 4.43998 0.865494 -4.12203 61.8236 20.2693 33.6696 29.5959 -12.3075 -4.79032 -19.7327 3.10353
internal_count=1000000 333750 252222 146591 105631 115022 90624 81528 71549 67768 64414 34082 52886 51597 47628 42063 40795 31569 23921 31200 32606 34360 16002 24307 18080 18183 22856 666250 24398 22968
shrinkage=0.1


Tree=36
num_leaves=31
num_cat=0
split_feature=7 14 13 12 20 16 16 23 23 17 18 17 23 5 21 16 15 3 23 19 18 21 3 21 0 21 13 21 3 3
split_gain=3.71048e+07 3.88337e+07 3.18993e+07 2.39444e+07 1.45401e+07 9.79965e+06 9.48228e+06 8.52382e+06 7.12458e+06 7.1073e+06 5.90619e+06 5.71085e+06 5.63293e+06 5.54492e+06 5.17112e+06 4.45166e+06 4.1787e+06 3.96971e+06 3.94837e+06 3.73007e+06 3.68926e+06 3.42028e+06 3.27176e+06 3.12712e+06 3.11862e+06 2.98926e+06 2.80086e+06 2.79028e+06 2.52907e+06 2.43688e+06
threshold=1.0000000180025095e-35 204.50000000000003 1.0000000180025095e-35 1.0000000180025095e-35 414.50000000000006 763.50000000000011 398.50000000000006 711.50000000000011 779.50000000000011 785.50000000000011 663.50000000000011 383.50000000000006 215.50000000000003 1.0000000180025095e-35 192.50000000000003 200.50000000000003 520.50000000000011 1.0000000180025095e-35 287.50000000000006 564.50000000000011 803.50000000000011 723.50000000000011 1.0000000180025095e-35 522.50000000000011 1.0000000180025095e-35 196.50000000000003 1.0000000180025095e-35 787.50000000000011 1.0000000180025095e-35 1.0000000180025095e-35
decision_type=2 2 2 2 2 2 2 2 2 2 2 2 2 2 2 2 2 2 2 2 2 2 2 2 2 2 2 2 2 2
left_child=26 9 3 4 13 8 21 11 14 12 19 -5 -2 18 -4 -14 -16 24 -3 -8 27 -6 -7 -9 -13 -20 -1 -17 -12 -10
right_child=1 2 5 7 6 22 10 23 29 -11 28 17 15 -15 16 20 -18 -19 25 -21 -22 -23 -24 -25 -26 -27 -28 -29 -30 -31
leaf_value=-0.54940177669914447 -3.7581634225723715 -2.1517256014912038 -0.32482691849984691 0.19843859281799006 -1.1190588350651918 4.676002284618078 0.0070843335192840931 2.8806480852049821 4.0472696227986233 0.67869502128723636 2.6120056807130183 0.94155418420133941 -3.3079628026658501 -2.6608477666387111 1.4692852721888678 -1.7787573947277207 3.7551632259349024 4.4735654993761154 -2.0097715947958732 2.218460844669027 1.4016133703896381 1.2291389473534968 8.0383089206969807 5.4330342151507249 3.4805560266521343 0.6627404082820656 -0.075687495873349081 0.72628928401690984 5.509417756212347 7.5186505885265067
leaf_count=499906 11546 10691 7636 17903 22505 11601 17376 10025 8345 14726 11812 14503 8499 18320 16591 21410 15439 7371 5230 13596 6460 8563 3856 9210 7259 20952 166344 5612 4044 2669
internal_value=0 8.60642 14.0756 7.76222 0.0287693 33.1065 8.82704 23.293 26.384 -12.6682 17.8138 16.0405 -18.0206 -12.3886 20.1363 -12.6408 25.7112 24.6783 -5.32353 9.77828 -7.45261 -4.71846 55.1478 41.0277 17.8847 1.28891 -4.31129 -12.585 33.5098 48.8848
internal_count=1000000 333750 265497 199360 133089 66137 77896 66271 50680 68253 46828 47036 53527 55193 39666 41981 32030 29133 36873 30972 33482 31068 15457 19235 21762 26182 666250 27022 15856 11014
shrinkage=0.1


Tree=37
num_leaves=31
num_cat=0
split_feature=7 22 5 19 17 20 14 15 21 14 18 14 21 21 18 15 21 15 21 17 15 19 3 20 16 22 16 3 21 19
